tree
version=v3
num_class=1
num_tree_per_iteration=1
label_index=0
max_feature_idx=14
objective=binary sigmoid:1
feature_names=mean_radius mean_perimeter mean_area mean_compactness mean_concavity mean_concave_points radius_error perimeter_error area_error worst_radius worst_perimeter worst_area worst_compactness worst_concavity worst_concave_points
feature_infos=[6.9809999999999999:28.109999999999999] [43.789999999999999:188.5] [143.5:2501] [0.019380000000000001:0.31140000000000001] [0:0.42680000000000001] [0:0.20119999999999999] [0.1115:2.8730000000000002] [0.84840000000000004:21.98] [6.8019999999999996:542.20000000000005] [7.9299999999999997:36.039999999999999] [50.409999999999997:251.19999999999999] [185.19999999999999:4254] [0.027289999999999998:1.0580000000000001] [0:1.252] [0:0.29099999999999998]
tree_sizes=835 940 1048 1354 1464 1768 1872 1862 1887 1877 1775 1781 1786 1776 1791 1772 1674 1679 1678 1670 1884 1891 1793 1883 1784 2001 1984 1996 1997 2003 1794 1904 1903 2002 1895 1983 2183 2193 2211 2313 2017 1804 2313 1903 2313 2311 2079 2313 1998 2231 2257 1902 2146 2032 2558 2534 2112 2655 2457 2864 2692 2801 2256 2582 2153 2662 2765 2675 2875 2802 2582 2381 2274 2163 2591 2773 2802 2779 2701 2797 2393 2507 2074 2510 2594 3006 2811 2917 3133 2812 2842 2838 2823 2845 2288 1618 2363 2363 2691 2809

Tree=0
num_leaves=7
num_cat=0
split_feature=9 14 10 0 0 1
split_gain=257.615 39.8182 7.36421 0.774183 2.84217e-14 1.42109e-14
threshold=16.795000000000005 0.14235000000000003 120.80000000000003 14.405000000000003 20.530000000000005 84.090000000000018
decision_type=2 2 2 2 2 2
left_child=1 3 -2 5 -4 -1
right_child=2 -3 4 -5 -6 -7
leaf_value=0.67193743251822924 0.3750379688616895 0.38740877984737854 0.24514445351195324 0.62925813461760161 0.24514445351195319 0.67193743251822924
leaf_weight=36.317373439669609 5.3890296071767834 5.6233352422714225 18.041533902287487 4.6861127018928519 4.9204183369874945 9.3722254037857038
leaf_count=155 23 24 77 20 21 40
internal_value=0.512008 0.639794 0.269835 0.667967 0.245144 0.671937
internal_weight=0 55.999 28.351 50.3757 22.962 45.6896
internal_count=360 239 121 215 98 195
shrinkage=1


Tree=1
num_leaves=8
num_cat=0
split_feature=9 14 14 14 2 0 0
split_gain=205.041 33.836 6.20167 0.788628 0.0299392 0.00099218 1.42109e-14
threshold=16.795000000000005 0.14235000000000003 0.14620000000000002 0.11575000000000002 748.05000000000007 14.035000000000002 12.480000000000002
decision_type=2 2 2 2 2 2 2
left_child=1 3 -2 5 -4 6 -1
right_child=2 -3 4 -5 -6 -7 -8
leaf_value=0.15107181117563484 -0.11273730038191271 -0.10891678777563506 -0.23655412649486329 0.10723902006366746 -0.22778059494088063 0.15263689920552984 0.15107181117563484
leaf_weight=27.972057461738586 5.6011588275432613 5.7803857326507559 4.8769252002239254 4.4936598539352408 19.209942251443863 4.5178340673446646 11.188822984695433
leaf_count=125 23 24 20 20 78 20 50
internal_value=0 0.119697 -0.207517 0.14713 -0.229557 0.151234 0.151072
internal_weight=0 53.9528 29.688 48.1724 24.0869 43.6787 39.1609
internal_count=360 239 121 215 98 195 175
shrinkage=0.1


Tree=2
num_leaves=9
num_cat=0
split_feature=10 5 14 14 9 14 1 1
split_gain=169.924 21.5071 11.5098 0.752222 0.0997162 0.000498545 0.000152225 3.5819e-05
threshold=105.95000000000002 0.048405000000000011 0.13270000000000001 0.15170000000000003 17.890000000000004 0.10625000000000001 87.860000000000014 113.90000000000002
decision_type=2 2 2 2 2 2 2 2
left_child=2 -2 5 -3 -5 6 -1 -6
right_child=1 3 -4 4 7 -7 -8 -9
leaf_value=0.14391082967013311 0.019411903413830062 -0.16208165349306422 -0.019874853473580506 -0.21727062063160174 -0.2014404482064942 0.1450743041126473 0.14454548974897566 -0.20175154302727757
leaf_weight=33.287742778658867 5.3949236273765555 4.904762968420985 4.7628719359636298 5.2056976109743145 4.9997226148843792 4.7102229595184317 4.2632606476545325 14.248925551772116
leaf_count=157 23 20 20 21 20 22 20 57
internal_value=0 -0.164101 0.127496 -0.197823 -0.204992 0.144105 0.143983 -0.201671
internal_weight=0 34.754 47.0241 29.3591 24.4543 42.2612 37.551 19.2486
internal_count=360 141 219 118 98 199 177 77
shrinkage=0.1


Tree=3
num_leaves=12
num_cat=0
split_feature=10 5 14 14 10 14 9 11 0 1 0
split_gain=141.713 17.4687 10.3864 0.690469 0.0545321 0.000322189 0.000100021 4.87413e-05 8.62471e-09 4.56214e-09 7.10543e-15
threshold=105.95000000000002 0.048405000000000011 0.13270000000000001 0.15170000000000003 123.65000000000002 0.10625000000000001 15.31 1381.0000000000002 19.200000000000006 83.185000000000016 12.015000000000002
decision_type=2 2 2 2 2 2 2 2 2 2 2
left_child=2 -2 5 -3 -5 6 9 -6 -9 10 -1
right_child=1 3 -4 4 7 -7 -8 8 -10 -11 -12
leaf_value=0.13802523913089568 0.017545846354153811 -0.14456204806345049 -0.017818052568450708 -0.19459192090113941 -0.18279865483275934 0.13898886578089883 0.13855485769243295 -0.18316650270018708 -0.18316132584337072 0.13802162012347233 0.1380252391308957
leaf_weight=19.161352157592781 5.3730254769325247 4.9463448375463512 4.7804135531187049 5.232588559389117 4.9556407481431988 4.4387670159339896 4.0158368349075309 4.9577695131301871 9.1718212217092496 3.9917777329683295 8.1834941506385785
leaf_count=96 23 20 20 21 20 22 20 20 37 20 41
internal_value=0 -0.148191 0.121454 -0.17862 -0.185548 0.138186 0.138085 -0.183069 -0.183163 0.138025 0.138025
internal_weight=0 34.6372 44.5716 29.2642 24.3178 39.7912 35.3525 19.0852 14.1296 31.3366 27.3448
internal_count=360 141 219 118 98 199 177 77 57 157 137
shrinkage=0.1


Tree=4
num_leaves=13
num_cat=0
split_feature=9 12 6 5 7 2 10 12 14 9 1 3
split_gain=119.662 24.3081 4.35507 1.06818 0.173688 0.0924007 0.03574 0.00759576 7.71626e-05 1.10188e-07 9.66338e-13 7.10543e-15
threshold=16.795000000000005 0.39005000000000006 0.34530000000000005 0.048405000000000011 3.1715000000000004 929.60000000000002 101.00000000000001 0.28835000000000005 0.098595000000000016 14.390000000000002 81.200000000000017 0.054290000000000012
decision_type=2 2 2 2 2 2 2 2 2 2 2 2
left_child=1 3 -2 6 -4 -6 8 -7 9 10 11 -1
right_child=2 -3 4 -5 5 7 -8 -9 -10 -11 -12 -13
leaf_value=0.1331228951967531 -0.068120399954607544 -0.099457523059629668 -0.1862360880089661 0.083160643752628244 -0.15495155443957989 -0.17417337165721297 0.14237569932200475 -0.16924285908365086 0.13360247211804141 0.13310446845974477 0.13312295038095348 0.13312289519675338
leaf_weight=6.167891934514059 4.873034521937373 5.2610586732625952 6.1045998185873058 4.5750533044338217 4.8653089553117779 4.8747163712978354 4.8666192740201941 8.7027556896209699 3.7641814947128287 3.7370694875717154 3.7381194084882727 14.578653663396834
leaf_count=33 20 22 25 22 20 20 24 36 20 20 20 78
internal_value=0 0.103021 -0.154473 0.128734 -0.171615 -0.166776 0.134392 -0.171013 0.133177 0.13312 0.133123 0.133123
internal_weight=0 46.6886 29.4204 41.4276 24.5474 18.4428 36.8525 13.5775 31.9859 28.2217 24.4847 20.7465
internal_count=360 239 121 217 101 76 195 56 171 151 131 111
shrinkage=0.1


Tree=5
num_leaves=16
num_cat=0
split_feature=14 0 5 8 14 10 13 8 5 12 3 14 1 0 0
split_gain=97.4533 21.2164 7.62134 0.657694 0.656012 0.257864 0.24378 0.61139 0.00713837 0.000281142 0.000112545 3.23977e-06 5.99402e-07 7.81597e-13 3.55271e-15
threshold=0.1358 15.025000000000002 0.059420000000000008 33.605000000000011 0.17100000000000001 123.65000000000002 0.21640000000000004 19.875000000000004 0.032570000000000009 0.47550000000000003 0.14320000000000002 0.079405000000000017 83.185000000000016 12.055000000000001 10.840000000000002
decision_type=2 2 2 2 2 2 2 2 2 2 2 2 2 2 2
left_child=1 3 -2 6 -4 -6 8 -8 11 10 -7 12 13 14 -1
right_child=2 -3 4 -5 5 9 7 -9 -10 -11 -12 -13 -14 -15 -16
leaf_value=0.12899437774426478 -0.018877717556273137 -0.11023542858691278 -0.12925197706865507 0.080585061331607158 -0.18508453744511832 -0.15804424266193962 0.080530695789091347 0.13568930719643826 0.13378805077420555 -0.15929814549783181 -0.15870803153012991 0.12907858797341978 0.12894806461106306 0.12899443242868452 0.12899437774426495
leaf_weight=6.4472419768571942 4.7659842520952251 4.4520883560180655 6.8511663824319866 3.7053841054439536 4.8768608421087292 4.8799175024032575 3.7908972799777967 4.2763910293579102 3.627550244331359 5.1387460082769385 5.3596623539924622 4.7119636684656134 3.4819028824567786 3.4849990606307975 4.1819947957992554
leaf_count=37 20 18 29 20 20 21 21 23 20 22 23 27 20 20 24
internal_value=0 0.0962169 -0.135496 0.120592 -0.156001 -0.165049 0.124952 0.10977 0.129674 -0.158695 -0.158392 0.129005 0.128985 0.128994 0.128994
internal_weight=0 42.1604 31.8723 37.7083 27.1064 20.2552 34.0029 8.06729 25.9357 15.3783 10.2396 22.3081 17.5961 14.1142 10.6292
internal_count=365 230 135 212 115 86 192 44 148 66 44 128 101 81 61
shrinkage=0.1


Tree=6
num_leaves=17
num_cat=0
split_feature=5 11 9 13 6 0 2 14 14 12 13 0 13 5 14 0
split_gain=83.2717 15.0617 11.0476 1.62066 0.777267 0.556285 0.132026 0.130907 0.25684 0.00542806 0.000523664 8.27854e-06 6.02232e-06 3.52946e-07 1.39416e-10 2.61693e-11
threshold=0.048405000000000011 696.05000000000007 16.875000000000004 0.32565000000000005 0.39920000000000005 14.535000000000002 818.75000000000011 0.10975000000000001 0.091565000000000021 0.31295000000000006 0.20440000000000003 13.435 0.53765000000000007 0.023835000000000005 0.064530000000000018 12.015000000000002
decision_type=2 2 2 2 2 2 2 2 2 2 2 2 2 2 2 2
left_child=2 -2 4 -3 7 -5 -7 8 10 -8 11 13 -11 14 15 -1
right_child=1 3 -4 5 -6 6 9 -9 -10 12 -12 -13 -14 -15 -16 -17
leaf_value=0.12548544891583827 0.061922555773511467 -0.096294772421916364 -0.05748439031399586 -0.18478936947948374 0.074174804945303999 -0.131659774351606 -0.15414825299141299 0.1432606586006929 0.09581902212608695 -0.15003109232077558 0.12686366191059398 0.12565279645960012 -0.14987190094717553 0.12544853536525688 0.12548480560490632 0.1254857943737345
leaf_weight=6.7975875735283058 4.1118964850902548 6.0565313249826458 3.9694184213876715 4.7741913497447994 3.4527806341648093 4.5225111693143871 4.5324085652828208 3.2459007352590552 3.2856015413999549 4.4451173692941648 3.3232141584157935 3.2486316859722129 5.1063783764839172 3.2341508269309989 3.2368979007005683 3.2369727492332458
leaf_count=42 20 27 16 20 20 20 20 17 20 20 20 20 23 20 20 20
internal_value=0 -0.117354 0.100149 -0.142396 0.119075 -0.154338 -0.146525 0.124311 0.121978 -0.151298 0.125702 0.125507 -0.149946 0.125478 0.125485 0.125486
internal_weight=0 33.549 37.0312 29.4371 33.0617 23.3806 18.6064 29.609 26.3631 14.0839 23.0775 19.7542 9.5515 16.5056 13.2715 10.0346
internal_count=365 150 215 130 199 103 83 179 162 63 142 122 43 102 82 62
shrinkage=0.1


Tree=7
num_leaves=17
num_cat=0
split_feature=14 0 8 7 13 8 8 13 14 14 13 6 0 5 13 0
split_gain=72.0073 16.5451 6.14909 0.640653 0.293048 0.595334 0.210943 0.126303 0.00978439 0.00792432 0.000141546 9.37054e-05 4.23188e-06 1.81653e-07 7.31532e-10 4.08917e-12
threshold=0.1358 15.025000000000002 28.730000000000004 3.1715000000000004 0.21640000000000004 19.875000000000004 43.590000000000011 0.58135000000000014 0.093120000000000022 0.16705 0.45465000000000005 0.35565000000000008 13.390000000000002 0.022790000000000005 0.11350000000000002 11.355000000000002
decision_type=2 2 2 2 2 2 2 2 2 2 2 2 2 2 2 2
left_child=1 3 -2 4 8 -6 -4 9 11 -8 -11 12 13 14 15 -1
right_child=2 -3 6 -5 5 -7 7 -9 -10 10 -12 -13 -14 -15 -16 -17
leaf_value=0.12247990782488241 -0.037926460664262418 -0.093082807738906842 -0.16434522951599717 0.071504204446465977 0.070346266473257923 0.12921860164760982 -0.14839102448041686 -0.12549753929823235 0.12865133463729736 -0.1435842016953103 -0.14279914667784141 0.12308811744549608 0.12260436647642275 0.12245155023422089 0.12247815127450348 0.12248005865662524
leaf_weight=4.4955844879150515 7.047837138175967 4.3988872915506354 4.4806483238935497 3.2947136759757987 3.4262183904647818 3.4444882869720459 4.3779657185077694 4.4580430835485449 3.0787516683340064 5.0717503726482374 4.1973977535963058 3.1968011409044257 3.0071596354246131 2.9946534782648078 3.1467529833316803 2.9970687627792358
leaf_count=30 30 18 20 19 21 21 20 21 19 24 20 21 20 20 21 20
internal_value=0 0.0891199 -0.119472 0.113347 0.117975 0.0998607 -0.144919 -0.140111 0.123406 -0.144885 -0.143229 0.122592 0.122497 0.122473 0.122479 0.12248
internal_weight=0 37.4811 29.6336 33.0822 29.7875 6.87071 22.5858 18.1052 22.9168 13.6471 9.26915 19.838 16.6412 13.6341 10.6394 7.49265
internal_count=365 230 135 212 193 42 105 85 151 64 44 132 111 91 71 50
shrinkage=0.1


Tree=8
num_leaves=17
num_cat=0
split_feature=5 11 9 13 6 0 4 3 3 12 10 13 13 11 4 14
split_gain=62.2995 11.7515 8.72543 1.55953 0.824912 0.420757 0.15165 0.137417 0.234937 0.078079 0.00388776 0.00065606 3.14331e-05 9.70946e-06 3.65595e-06 1.20971e-07
threshold=0.048405000000000011 696.05000000000007 16.875000000000004 0.32565000000000005 0.40365000000000006 14.535000000000002 0.14655000000000004 0.05809000000000001 0.052285000000000005 0.29715000000000008 143.65000000000001 0.21640000000000004 0.57545000000000013 624.35000000000014 0.039380000000000005 0.063060000000000019
decision_type=2 2 2 2 2 2 2 2 2 2 2 2 2 2 2 2
left_child=2 -2 4 -3 7 -5 -7 8 -1 11 -8 13 -12 14 15 -9
right_child=1 3 -4 5 -6 6 10 9 -10 -11 12 -13 -14 -15 -16 -17
leaf_value=0.11996643702551012 0.056576585209531099 -0.081860964854679974 -0.045987907559494966 -0.16775697467805528 0.062988647790316529 -0.11657843729873663 -0.14128448505033286 0.11988814773371288 0.084031076370135613 0.13808583773052216 -0.13735927771798659 0.12156632346141567 -0.13774404235680618 0.12013426736451011 0.12001386187358989 0.11985925217997238
leaf_weight=5.2707520127296501 3.9475892186164883 5.7285639047622707 3.9448561519384375 4.5117868930101421 3.0002589970827094 4.0789469480514553 4.1035581827163687 3.0441396385431307 2.7783074975013733 2.9792711883783332 4.5533867180347425 3.3393214195966712 3.9783049374818802 2.7893829941749564 2.7786801904439926 2.7646481096744537
leaf_count=38 20 27 16 20 19 20 20 22 20 17 23 23 20 20 20 20
internal_value=0 -0.104563 0.0934729 -0.128162 0.112612 -0.140658 -0.133343 0.118395 0.107563 0.123323 -0.138755 0.120334 -0.137539 0.119972 0.11992 0.119874
internal_weight=0 30.9021 32.6896 26.9545 28.7448 21.226 16.7142 25.7445 8.04906 17.6954 12.6352 14.7162 8.53169 11.3769 8.58747 5.80879
internal_count=365 150 215 130 199 103 83 180 58 122 63 105 43 82 62 42
shrinkage=0.1


Tree=9
num_leaves=17
num_cat=0
split_feature=14 11 8 8 14 8 7 0 13 14 13 6 13 14 9 3
split_gain=54.5068 12.6158 4.51187 3.8437 1.18484 0.170304 0.155123 0.223741 0.133135 0.0906327 0.00470055 0.00073829 0.000162518 7.7405e-05 9.98982e-06 8.58718e-06
threshold=0.14235000000000003 969.20000000000016 24.890000000000004 36.520000000000003 0.12550000000000003 40.620000000000005 1.4730000000000003 12.350000000000001 0.59830000000000017 0.10625000000000001 0.35920000000000007 0.3786500000000001 0.45465000000000005 0.084390000000000007 13.755000000000001 0.058750000000000004
decision_type=2 2 2 2 2 2 2 2 2 2 2 2 2 2 2 2
left_child=1 3 -2 4 6 -4 7 -1 10 11 -7 13 -12 14 15 -8
right_child=2 -3 5 -5 -6 8 9 -9 -10 -11 12 -13 -14 -15 -16 -17
leaf_value=0.11841784257281113 -0.026596185413722714 -0.10705345307171242 -0.15178468162757741 -0.010393850508446134 0.0470732306747466 -0.13693123857023939 0.1178366754643479 0.080770059281256676 -0.11283904203396765 0.13732384361907565 -0.13325170266429492 0.11967586120936642 -0.13237991033470892 0.11836328796267966 0.11789318801534168 0.11760938341405765
leaf_weight=3.9267957657575705 4.8451112806797054 3.2939221709966651 4.1988968849182156 2.9292822629213324 2.7139821052551261 4.1167357414960888 2.5686040073633247 2.6397797614336014 3.8115883767604819 2.9169103130698195 4.3046350926160795 2.7360627353191367 4.2490598410367966 2.6110282316803923 3.6028071269392967 4.7103745937347412
leaf_count=30 21 14 20 16 14 21 20 20 20 18 23 20 23 20 28 37
internal_value=0 0.0791168 -0.113456 0.098674 0.109913 -0.133806 0.116546 0.103283 -0.129225 0.121095 -0.134155 0.118178 -0.132819 0.117874 0.117757 0.11769
internal_weight=0 34.6495 25.526 31.3556 28.4263 20.6809 25.7124 6.56658 16.482 19.1458 12.6704 16.2289 8.55369 13.4928 10.8818 7.27898
internal_count=365 237 128 223 207 107 193 50 87 143 67 125 46 105 85 57
shrinkage=0.1


Tree=10
num_leaves=16
num_cat=0
split_feature=10 14 8 0 9 3 14 14 4 14 3 13 7 8 7
split_gain=54.8682 16.128 4.16554 0.54743 0.309205 0.169767 0.0679259 0.0447715 0.00059795 0.000570878 0.000297575 6.21029e-05 3.02561e-05 2.6383e-05 2.91013e-06
threshold=116.05000000000003 0.15970000000000004 32.980000000000011 14.735000000000001 18.530000000000005 0.12015000000000002 0.11460000000000002 0.15555000000000002 0.043180000000000003 0.18960000000000002 0.097110000000000016 0.49440000000000006 1.4510000000000003 23.390000000000004 1.9570000000000003
decision_type=2 2 2 2 2 2 2 2 2 2 2 2 2 2 2
left_child=1 2 3 5 -2 6 8 -6 12 -9 -10 -11 -1 14 -14
right_child=4 -3 -4 -5 7 -7 -8 9 10 11 -12 -13 13 -15 -16
leaf_value=0.11616008387084625 -0.10170409720351503 -0.11253410697514801 0.023270134037529318 0.16559256028312683 -0.14166695896287937 0.0910204292336462 0.13385037512881015 -0.13038761756208114 0.11790251043278155 -0.12866495210122017 0.11642546472783413 -0.12923519093095479 0.11567467223057036 0.11610561655789667 0.11581160521170238
leaf_weight=4.3075238540768792 4.0785063654184368 3.8738973289728156 5.3577026501297942 2.3951283469796172 4.0197460949420956 2.5427768677473059 2.4978879094123831 4.4608864486217481 2.8018515333533278 3.6349913328886032 2.6578666940331459 4.0241721868515015 3.8657202497124654 2.6250685751438141 2.5931022018194199
leaf_count=36 20 18 30 13 20 17 16 25 22 21 22 23 33 22 22
internal_value=0 0.0800581 0.103635 0.120015 -0.126305 0.115446 0.118355 -0.132522 0.116301 -0.129488 0.117183 -0.128965 0.115942 0.115838 0.11573
internal_weight=0 35.5185 31.6446 26.2869 20.2183 23.8918 21.349 16.1398 18.8511 12.12 5.45972 7.65916 13.3914 9.08389 6.45882
internal_count=360 251 233 203 109 190 173 89 157 69 44 44 113 77 55
shrinkage=0.1


Tree=11
num_leaves=16
num_cat=0
split_feature=10 14 8 0 9 3 14 14 14 4 9 13 8 6 3
split_gain=47.7153 13.9638 4.03655 0.393269 0.343067 0.190108 0.0500672 0.0306082 0.000387302 0.000351636 0.000125867 4.20625e-05 1.10301e-05 1.86476e-05 1.96235e-06
threshold=116.05000000000003 0.15970000000000004 32.980000000000011 14.630000000000001 18.530000000000005 0.12015000000000002 0.11460000000000002 0.15555000000000002 0.18960000000000002 0.040660000000000009 13.480000000000002 0.49440000000000006 23.390000000000004 0.19070000000000001 0.052025000000000009
decision_type=2 2 2 2 2 2 2 2 2 2 2 2 2 2 2
left_child=1 2 3 5 -2 6 9 -6 -9 12 -11 -10 13 -1 -15
right_child=4 -3 -4 -5 7 -7 -8 8 11 10 -12 -13 -14 14 -16
leaf_value=0.11434768314866894 -0.095318850908860095 -0.10477548023332535 0.021103845787272191 0.15570020286764003 -0.13631588254655755 0.086586019832076033 0.13012691365200543 -0.12667648244836949 -0.12520482019986209 0.1147331988396888 0.11569197077502498 -0.12569178144501766 0.1143647140822196 0.11396060095629588 0.11407132597627175
leaf_weight=2.5222118273377578 3.9246695935726192 3.7511465698480597 5.3190273493528357 2.4007220044732085 3.772510737180709 2.4125572741031638 2.3215032294392577 4.1484727114438993 3.3752475827932358 3.3476163372397414 2.3169186562299728 3.7385340929031372 2.1934673562645903 2.5799172967672348 4.2166861444711685
leaf_count=23 20 18 30 14 20 17 16 25 21 30 20 23 20 24 39
internal_value=0 0.0770004 0.100013 0.117277 -0.121647 0.113067 0.116343 -0.12852 -0.125909 0.11448 0.115125 -0.125461 0.114163 0.114115 0.114029
internal_weight=0 33.3818 29.6306 24.3116 18.9594 21.9109 19.4983 15.0348 11.2623 17.1768 5.66453 7.11378 11.5123 9.31882 6.7966
internal_count=360 251 233 203 109 189 172 89 69 156 50 44 106 86 63
shrinkage=0.1


Tree=12
num_leaves=16
num_cat=0
split_feature=10 14 8 13 9 14 14 4 14 6 13 13 6 7 3
split_gain=41.5869 12.4989 4.56227 0.467538 0.378034 0.127676 0.0211869 0.000349241 0.000179605 8.67164e-05 4.98473e-05 2.88035e-05 2.52181e-05 1.17313e-05 5.1847e-06
threshold=116.05000000000003 0.17575000000000002 32.980000000000011 0.36630000000000007 18.530000000000005 0.11195000000000001 0.15720000000000003 0.047080000000000004 0.18960000000000002 0.17950000000000002 0.25645000000000007 0.49440000000000006 0.35360000000000008 1.4730000000000003 0.071925000000000003
decision_type=2 2 2 2 2 2 2 2 2 2 2 2 2 2 2
left_child=1 2 3 5 -2 7 -6 9 -8 -1 -9 -10 13 -11 -15
right_child=4 -3 -4 -5 6 -7 8 10 11 12 -12 -13 -14 14 -16
leaf_value=0.11334849297731697 -0.089431378023323946 -0.14695396520151854 0.011051223889131682 0.072397830458891144 -0.13160479031071098 0.13360097326612588 -0.12333172530081571 0.11414060337395676 -0.12223912318368974 0.11277844483852867 0.11345354514374834 -0.12265791690843252 0.11295792636473419 0.11256540451050155 0.11237932538511818
leaf_weight=2.0596817582845857 3.7727718502283123 2.3646982312202445 5.5981115326285353 2.6982232555747023 3.692530781030654 3.6597594767808905 3.6766265481710416 2.1461104974150649 3.124304786324501 2.007744260132311 2.0788705423474312 3.4620969146490097 2.0269454196095458 4.4608200415968895 2.2539552301168442
leaf_count=20 20 12 32 14 21 25 24 20 21 20 20 23 20 45 23
internal_value=0 0.0741113 0.0921433 0.11155 -0.117516 0.116655 -0.125109 0.113014 -0.122772 0.112754 0.113803 -0.122459 0.11264 0.112566 0.112503
internal_weight=0 31.3549 28.9902 23.3921 17.7283 20.6939 13.9556 17.0341 10.263 12.8091 4.22498 6.5864 10.7495 8.72252 6.71478
internal_count=360 251 239 207 109 193 89 168 68 128 40 44 108 88 68
shrinkage=0.1


Tree=13
num_leaves=16
num_cat=0
split_feature=10 14 7 11 10 3 11 14 14 2 14 13 13 3 12
split_gain=36.4459 10.5199 3.79268 7.15211 0.560627 0.260559 0.0924805 0.0136583 0.0119854 0.000203402 0.000122917 3.3526e-05 2.36727e-05 1.02057e-06 1.47962e-07
threshold=117.45000000000002 0.15970000000000004 2.6295000000000006 754.10000000000014 105.95000000000002 0.11495000000000001 1137.0000000000002 0.15970000000000004 0.10535000000000001 514.15000000000009 0.18960000000000002 0.18790000000000004 0.5324000000000001 0.05809000000000001 0.16580000000000003
decision_type=2 2 2 2 2 2 2 2 2 2 2 2 2 2 2
left_child=1 2 4 -4 5 8 -2 -8 9 11 -9 13 -12 -1 -15
right_child=6 -3 3 -5 -6 -7 7 10 -10 -11 12 -13 -14 14 -16
leaf_value=0.11122744641809323 -0.10408141441210948 -0.09378905931247529 0.12352493185235194 -0.073345810572398681 0.16182635906211523 0.075089843391426728 -0.12754590104384886 -0.1206307032522832 0.11994584458953117 0.11217052842227766 -0.11964248441465775 0.11163189455897414 -0.12004268486505543 0.111170789245969 0.11113078366775851
leaf_weight=3.3571753725409632 3.6765873134136191 3.495902180671691 3.8787213563919059 3.5199601650238037 2.1826658323407164 2.1082775667309752 3.4117607772350302 2.8316261023282987 1.9530512690544117 3.70703250914812 3.1548846960067749 2.235612578690052 2.7809142172336578 1.8979696035385134 1.8025217130780218
leaf_count=37 22 18 31 17 12 18 21 20 17 39 23 24 20 21 20
internal_value=0 0.0693111 0.090712 0.0298627 0.114106 0.108001 -0.117982 -0.122178 0.112642 0.111544 -0.120089 0.111294 -0.11983 0.111188 0.111151
internal_weight=0 30.1389 26.643 7.39868 19.2443 17.0616 15.8558 12.1792 14.9534 13.0003 8.76743 9.29328 5.9358 7.05767 3.70049
internal_count=360 254 236 48 188 176 106 84 158 141 63 102 43 78 41
shrinkage=0.1


Tree=14
num_leaves=16
num_cat=0
split_feature=14 10 0 12 8 11 14 14 6 13 14 13 6 7 8
split_gain=32.1048 7.71792 3.95289 3.33768 0.0456253 0.0393131 0.00254541 0.00247067 0.000651781 0.00022034 8.08464e-05 1.64774e-05 5.67357e-06 3.81892e-06 1.36966e-06
threshold=0.11575000000000002 115.35000000000001 15.025000000000002 0.36725000000000008 36.520000000000003 1095.0000000000002 0.099925000000000014 0.15970000000000004 0.37200000000000005 0.22655000000000003 0.18960000000000002 0.5324000000000001 0.19070000000000001 1.9570000000000003 18.530000000000005
decision_type=2 2 2 2 2 2 2 2 2 2 2 2 2 2 2
left_child=2 3 4 -2 6 -3 8 -7 9 12 -9 -12 -1 14 -14
right_child=1 5 -4 -5 -6 7 -8 10 -10 -11 11 -13 13 -15 -16
leaf_value=0.11019895885255247 0.057933995141161036 -0.13126298871019401 -0.026191715929738121 -0.067095585266687088 0.12765982140046991 -0.12122806435588457 0.11428773283767349 -0.11825658766599667 0.11218684644378965 0.11113713670214675 -0.11742787102528324 -0.11777574521157666 0.10999298255973365 0.11009501929890342 0.10987722290716723
leaf_weight=2.0144117921590858 4.496647275984289 3.2112738937139502 2.3132565021514884 4.0654909312725067 1.8436072170734394 2.8556683212518683 2.1008941680192939 2.7376803606748563 2.0742624551057807 2.3226389139890662 2.9057158306241035 2.5622075647115707 2.7254439890384674 3.0801697447896004 1.6354460194706915
leaf_count=24 29 20 11 21 12 20 21 21 22 26 23 20 33 37 20
internal_value=0 -0.0764934 0.0967813 -0.00143279 0.112765 -0.121522 0.111044 -0.118695 0.110552 0.110264 -0.117813 -0.117591 0.11005 0.11001 0.10995
internal_weight=0 22.8347 20.1101 8.56214 17.7969 14.2725 15.9533 11.0613 13.8524 11.7781 8.2056 5.46792 9.45547 7.44106 4.36089
internal_count=360 154 206 50 195 104 183 84 162 140 64 43 114 90 53
shrinkage=0.1


Tree=15
num_leaves=16
num_cat=0
split_feature=10 13 5 8 3 5 4 3 14 10 6 13 10 12 8
split_gain=26.2577 8.00713 2.38298 1.02256 0.691923 1.81356 0.367515 0.105999 0.0776362 0.00652851 0.0017294 0.000179637 3.92269e-05 2.36808e-06 2.42302e-07
threshold=101.55000000000003 0.25915000000000005 0.056480000000000009 31.285 0.059285000000000004 0.016985000000000004 0.12110000000000001 0.17950000000000002 0.11325000000000002 138.65000000000001 0.37200000000000005 0.21640000000000004 83.040000000000006 0.19080000000000003 17.830000000000002
decision_type=2 2 2 2 2 2 2 2 2 2 2 2 2 2 2
left_child=2 -2 4 -3 5 12 -5 9 10 -8 11 13 -1 14 -6
right_child=1 3 -4 6 8 -7 7 -9 -10 -11 -12 -13 -14 -15 -16
leaf_value=0.10899455459968369 0.03217086848140592 -0.065291076198269876 -0.01053145782062544 -0.14994210391404633 0.10894430362517711 -0.022840635381030424 -0.12178170306657853 -0.09572845914627201 0.13309382146557386 -0.11570025573452412 0.11272423928976989 0.11008245378435032 0.10968143794945868 0.10906242201625729 0.10889174979581134
leaf_weight=1.7409912720322638 5.3106218650937107 4.3593003153800991 2.2551028579473487 3.3046845719218245 1.5070840865373596 1.5081733986735342 2.8759634867310506 2.9786545038223267 1.7352968156337727 4.5705952644348145 1.8206375688314436 1.9643292874097822 1.5913826450705526 1.5229999944567678 2.0993964821100235
leaf_count=23 35 26 12 21 20 19 21 24 14 39 19 24 20 20 28
internal_value=0 -0.0757907 0.0855112 -0.107486 0.0994932 0.0681444 -0.120883 -0.111672 0.113742 -0.118049 0.109975 0.109269 0.109323 0.108958 0.108914
internal_weight=0 23.3998 17.7454 18.0892 15.4903 4.84055 13.7299 10.4252 10.6497 7.44656 8.91445 7.09381 3.33237 5.12948 3.60648
internal_count=365 166 199 131 187 62 105 84 125 60 111 92 43 68 48
shrinkage=0.1


Tree=16
num_leaves=15
num_cat=0
split_feature=13 11 14 8 8 11 10 8 13 2 13 14 7 13
split_gain=23.0988 9.0761 2.10184 2.03587 0.877748 0.187725 0.0578413 0.000901964 0.000844843 5.55861e-05 2.21159e-05 7.69391e-06 3.20327e-06 2.47392e-06
threshold=0.21640000000000004 650.80000000000007 0.12230000000000001 39.635000000000012 31.285 1095.0000000000002 101.80000000000003 29.485000000000003 0.35920000000000007 493.4500000000001 0.57545000000000013 0.069535000000000013 1.9455000000000002 0.43290000000000001
decision_type=2 2 2 2 2 2 2 2 2 2 2 2 2 2
left_child=3 -2 -3 6 -4 -6 7 9 -7 11 13 12 -1 -10
right_child=1 2 4 -5 5 8 -8 -9 10 -11 -12 -13 -14 -15
leaf_value=0.10803564494331448 0.065252141773720559 -0.023956094621967627 -0.069298593747889811 0.0052881099310743453 -0.14334300228221122 -0.11613963864075266 0.12981761459325264 0.11108152162388417 -0.11392246615640905 0.10871699291986291 -0.1142272266339087 0.10834513825477904 0.10820852097280281 -0.11377206690463815
leaf_weight=2.4781709313392621 4.4254732355475452 3.6340858265757587 4.3451392352581051 2.1307723000645629 3.0005986914038649 2.4820270463824254 1.4777513593435276 1.3885525465011586 2.2516621723771095 2.8371114283800125 2.3978864699602127 2.0530099421739578 1.8886997923254965 2.1266710162162781
leaf_count=36 39 25 25 13 20 21 12 16 21 39 22 29 27 20
internal_value=0 -0.0644737 -0.0928409 0.0954344 -0.107918 -0.121606 0.111278 0.108705 -0.114561 0.108348 -0.113983 0.108185 0.10811 -0.113849
internal_weight=0 24.6635 20.2381 14.2541 16.604 12.2588 12.1233 10.6455 9.25825 9.25699 6.77622 6.41988 4.36687 4.37833
internal_count=365 193 154 172 129 104 159 147 84 131 63 92 63 41
shrinkage=0.1


Tree=17
num_leaves=15
num_cat=0
split_feature=13 11 11 2 8 0 6 10 13 8 2 12 14 7
split_gain=20.1254 7.7879 2.30936 2.52352 1.98411 0.0471838 0.0784486 0.0407052 0.00222035 0.000650843 4.21321e-05 1.07054e-05 5.57987e-06 2.32231e-06
threshold=0.21640000000000004 650.80000000000007 864.55000000000007 621.15000000000009 39.635000000000012 16.135000000000002 0.53310000000000002 101.55000000000003 0.37615000000000004 29.485000000000003 493.4500000000001 0.39310000000000006 0.069535000000000013 1.9455000000000002
decision_type=2 2 2 2 2 2 2 2 2 2 2 2 2 2
left_child=4 -2 3 -3 7 -4 -7 9 -8 10 12 -10 13 -1
right_child=1 2 5 -5 -6 6 8 -9 11 -11 -12 -13 -14 -15
leaf_value=0.10721277424033676 0.060596835683577426 -0.099558629367462417 -0.12065872932946919 0.028720110387470715 0.0047611905093770676 -0.093024171358533039 -0.11640645499619806 0.12588631542327483 -0.11231845097581344 0.10992392913174426 0.10783521426514529 -0.11264791568406635 0.10748881990216758 0.10736695063577623
leaf_weight=2.2586716450750814 4.2959024682641056 3.1836572065949467 4.3209522888064376 2.958766981959343 2.1299716010689727 2.526050888001917 2.2770123481750488 1.4311395362019528 1.9525068551301958 1.2689671888947476 2.5240565463900566 1.992905870079994 1.8716820925474165 1.7216762676835058
leaf_count=36 39 22 32 18 13 22 20 13 20 16 38 20 29 27
internal_value=0 -0.0611232 -0.0883406 -0.0377676 0.0931511 -0.112109 -0.107886 0.110149 -0.11392 0.107813 0.107494 -0.112485 0.107346 0.107279
internal_weight=0 23.5078 19.2119 6.14242 13.2062 13.0694 8.74848 11.0762 6.22243 9.64505 8.37609 3.94541 5.85203 3.98035
internal_count=365 193 154 40 172 114 82 159 60 146 130 40 92 63
shrinkage=0.1


Tree=18
num_leaves=15
num_cat=0
split_feature=13 11 14 8 10 6 10 14 8 2 3 4 14 7
split_gain=17.5393 6.93584 3.9558 1.93373 0.427133 0.0642565 0.0320497 0.0103503 0.000473354 2.92295e-05 2.4083e-05 1.41666e-05 4.05564e-06 1.68745e-06
threshold=0.21640000000000004 864.55000000000007 0.12230000000000001 39.635000000000012 95.41500000000002 0.39920000000000005 101.80000000000003 0.15970000000000004 29.485000000000003 493.4500000000001 0.17585000000000003 0.15260000000000004 0.069535000000000013 1.9455000000000002
decision_type=2 2 2 2 2 2 2 2 2 2 2 2 2 2
left_child=3 2 4 6 -2 -3 8 -7 9 12 11 -9 13 -1
right_child=1 5 -4 -5 -6 7 -8 10 -10 -11 -12 -13 -14 -15
leaf_value=0.10647949907201387 0.051906581032713908 -0.09692090399074714 -0.043168240549464588 0.0042866061970680703 0.1207341572329541 -0.11885042552598762 0.12403445407526473 -0.11139115789371179 0.10889690075225278 0.10702180753277878 -0.11160803690029052 -0.11102186929089573 0.10672607896776605 0.10661720635645577
leaf_weight=2.0570854172110544 1.7760785408318063 3.1618675589561454 6.6612574681639671 2.1292472258210173 1.8313666358590124 2.5770991146564466 1.2642211131751526 2.0138552561402321 1.1584833674132822 2.3567431345582008 2.2289054095745087 2.1455223336815834 1.7050526067614553 1.5682319328188894
leaf_count=36 26 22 36 13 17 22 12 22 16 39 24 24 29 27
internal_value=0 -0.0579697 0.00250703 0.0908994 0.0868478 -0.109178 0.109141 -0.113501 0.107013 0.106729 -0.111343 -0.111201 0.106599 0.106539
internal_weight=0 22.396 10.2687 12.2391 3.60745 12.1272 10.1098 8.96538 8.8456 7.68711 6.38828 4.15938 5.33037 3.62532
internal_count=365 193 79 172 43 114 159 92 147 131 70 46 92 63
shrinkage=0.1


Tree=19
num_leaves=15
num_cat=0
split_feature=13 10 8 8 14 10 10 14 8 2 3 6 14 7
split_gain=15.2982 6.98912 3.23935 1.88404 1.40611 0.17407 0.0238287 0.000410496 0.000343989 2.13907e-05 1.62406e-05 7.85248e-06 2.95371e-06 1.22865e-06
threshold=0.21640000000000004 91.695000000000007 23.865000000000006 39.635000000000012 0.1358 118.15000000000002 101.80000000000003 0.17295000000000002 29.485000000000003 493.4500000000001 0.17585000000000003 0.59420000000000017 0.069535000000000013 1.9455000000000002
decision_type=2 2 2 2 2 2 2 2 2 2 2 2 2 2
left_child=3 -2 -3 6 -4 -6 8 -7 9 12 11 -9 13 -1
right_child=1 2 4 -5 5 7 -8 10 -10 -11 -12 -13 -14 -15
leaf_value=0.10582503765943888 0.09179073757548617 -0.0081916182252452733 -0.035926103067889237 0.0038592020895248471 -0.13887073541415473 -0.11172857054241719 0.12159940014073503 -0.11017269370960042 0.10798383104407124 0.1063109942326726 -0.11038312389228583 -0.10987530284536447 0.10604559348855938 0.10594820175342055
leaf_weight=1.8722508810460552 2.8103509359061745 4.9402431547641781 2.5500163584947577 2.1285921931266776 3.0053450763225538 2.3691894486546516 1.1656435579061497 1.8382770493626597 1.0566490218043325 2.1459987349808216 2.0380292981863022 1.7173346802592275 1.5521895103156564 1.4274972900748251
leaf_count=36 30 34 17 13 19 26 12 22 16 39 24 21 29 27
internal_value=0 -0.0551212 -0.077489 0.088659 -0.102814 -0.118365 0.108236 -0.110625 0.106302 0.106048 -0.110158 -0.110029 0.105932 0.105878
internal_weight=0 21.2688 18.4584 11.3488 13.5182 10.9682 9.22023 7.96283 8.05459 6.99794 5.59364 3.55561 4.85194 3.29975
internal_count=365 193 163 172 129 112 159 93 147 131 67 43 92 63
shrinkage=0.1


Tree=20
num_leaves=17
num_cat=0
split_feature=10 14 11 7 14 13 10 14 1 8 13 6 3 5 7 3
split_gain=17.0338 6.96688 3.10451 3.44854 0.494591 0.580652 0.179119 0.00813424 0.00688604 0.00260452 0.000478905 5.86032e-05 4.40625e-06 1.74499e-05 3.48032e-06 7.13395e-07
threshold=117.45000000000002 0.17575000000000002 739.85000000000002 2.6295000000000006 0.14525000000000002 0.33795000000000003 126.90000000000002 0.15970000000000004 86.680000000000021 32.600000000000001 0.21640000000000004 0.56335000000000013 0.062235000000000006 0.013715000000000003 2.0335000000000005 0.16605000000000003
decision_type=2 2 2 2 2 2 2 2 2 2 2 2 2 2 2 2
left_child=1 2 4 -4 5 8 -2 -8 9 10 12 -9 13 -1 -14 -13
right_child=6 -3 3 -5 -6 -7 7 11 -10 -11 -12 15 14 -15 -16 -17
leaf_value=0.1052925592977435 -0.079880459514681562 -0.13268370036231655 0.09545068914617108 -0.050560971698414316 0.16413593279718858 0.031900090550886322 -0.11681483478951689 -0.10975212924373812 0.11462918190657168 0.11109679088041664 0.1072468665388424 -0.10896883019933155 0.10522122893020602 0.105812518713194 0.10543897390624345 -0.10906141053813795
leaf_weight=1.7175636291503997 2.43056473135948 1.72594904154539 3.1787184365093699 3.2935591787099838 1.3352726697921742 1.1334439627826203 2.000058114528656 1.5828195735812185 1.1831414848566044 1.0783541575074194 1.8469584584236143 1.7355869188904764 1.7436829842627051 1.0339972190558908 1.267727233469486 1.5992830172181127
leaf_count=36 22 12 28 19 6 11 20 20 16 13 30 23 37 20 26 21
internal_value=0 0.0596009 0.0772421 0.0211495 0.106662 0.0996885 -0.103233 -0.111438 0.107472 0.106497 0.105846 -0.109251 0.105396 0.105488 0.105313 -0.109013
internal_weight=0 20.5384 18.8124 6.47228 12.3401 11.0049 9.34831 6.91775 9.87143 8.68828 7.60993 4.91769 5.76297 2.75156 3.01141 3.33487
internal_count=360 254 242 47 195 189 106 84 178 162 149 64 119 56 63 44
shrinkage=0.1


Tree=21
num_leaves=17
num_cat=0
split_feature=10 14 11 13 14 13 10 14 1 8 13 6 3 5 7 3
split_gain=14.9665 6.07013 2.95533 3.10274 0.367105 0.590759 0.196647 0.00607952 0.00525227 0.00189671 0.000349083 4.28747e-05 3.21034e-06 1.27189e-05 2.54017e-06 5.12705e-07
threshold=117.45000000000002 0.17575000000000002 739.85000000000002 0.26415000000000005 0.14525000000000002 0.33795000000000003 126.90000000000002 0.15970000000000004 86.680000000000021 32.600000000000001 0.21640000000000004 0.56335000000000013 0.062235000000000006 0.013715000000000003 2.0335000000000005 0.16605000000000003
decision_type=2 2 2 2 2 2 2 2 2 2 2 2 2 2 2 2
left_child=1 2 4 -4 5 8 -2 -8 9 10 12 -9 13 -1 -14 -13
right_child=6 -3 3 -5 -6 -7 7 11 -10 -11 -12 15 14 -15 -16 -17
leaf_value=0.10476365777148587 -0.076140609340946311 -0.12912239709399648 0.08950926633439539 -0.050259112383490047 0.15520834005868911 0.029379533017135875 -0.11512790715177135 -0.10874401492864053 0.11326982528051588 0.10994825010022852 0.10651248253831165 -0.10804302529023391 0.10469979297506432 0.10522915019073363 0.10489488351221932 -0.1081251992349805
leaf_weight=1.5615613497793766 2.3017428517341596 1.6025466620922078 3.169809538871049 3.1833391785621643 1.2740095853805531 1.1089492104947556 1.8348842337727544 1.44479164481163 1.0827418081462381 0.98540562018752087 1.6821307577192781 1.5831918939948084 1.585206210613251 0.94052129983901966 1.1527332402765749 1.4589794650673864
leaf_count=36 22 12 28 19 6 11 20 20 16 13 30 23 37 20 26 21
internal_value=0 0.0572578 0.0741074 0.0194763 0.104625 0.0982435 -0.101167 -0.110279 0.106738 0.105843 0.105259 -0.108295 0.104857 0.104939 0.104782 -0.108082
internal_weight=0 19.329 17.7264 6.35315 11.3733 10.0992 8.62359 6.32185 8.9903 7.90756 6.92215 4.48696 5.24002 2.50208 2.73794 3.04217
internal_count=360 254 242 47 195 189 106 84 178 162 149 64 119 56 63 44
shrinkage=0.1


Tree=22
num_leaves=16
num_cat=0
split_feature=5 11 14 14 8 14 11 4 13 9 6 7 3 0 11
split_gain=13.3558 3.50169 3.28999 0.511654 0.173014 0.0523857 0.0363259 0.000515895 9.33945e-05 8.3552e-05 1.50877e-05 1.00345e-05 2.84661e-06 1.97631e-06 2.57108e-07
threshold=0.048405000000000011 926.6500000000002 0.14765000000000003 0.17100000000000001 34.065000000000005 0.11460000000000002 932.05000000000007 0.076455000000000009 0.21005000000000004 21.550000000000004 0.37020000000000003 1.3465000000000003 0.05809000000000001 20.375000000000004 550.95000000000016
decision_type=2 2 2 2 2 2 2 2 2 2 2 2 2 2 2
left_child=1 4 -2 -4 5 7 -5 8 10 -8 11 -1 -13 -11 -14
right_child=2 -3 3 6 -6 -7 9 -9 -10 13 -12 12 14 -15 -16
leaf_value=0.10463335648249061 0.0073988984332903317 -0.033744195811631246 -0.058356077314161751 -0.12365683105326016 0.068960354559505915 0.12286848827612618 -0.10820065572310134 0.10711989805194491 0.10554645362072744 -0.10718049489304632 0.10484573050146782 0.10441468194558819 0.1042591754807646 -0.10734471951099585 0.10418760615155993
leaf_weight=1.247687771916391 4.4647337011992922 2.2184943407773963 2.3677618838846666 2.0721654742956161 1.2239646613597859 2.0950992554426193 1.3636320531368253 0.94857383891940106 0.93177036195993412 1.6242150664329531 0.86821665614843357 1.3321781866252425 1.0965632498264315 1.3351743370294569 0.9256850630044936
leaf_count=30 37 11 26 17 12 20 20 16 19 26 20 33 28 21 24
internal_value=0 0.0805674 -0.0624698 -0.098068 0.104335 0.108919 -0.112771 0.104943 0.104621 -0.107553 0.104463 0.104391 0.104301 -0.107255 0.104226
internal_weight=0 12.8882 13.2277 8.76295 10.6697 9.44577 6.39519 7.35068 6.4021 4.32302 5.47033 4.60211 3.35443 2.95939 2.02225
internal_count=360 213 147 110 202 190 84 170 154 67 135 115 85 47 52
shrinkage=0.1


Tree=23
num_leaves=17
num_cat=0
split_feature=10 13 8 5 10 11 8 14 5 8 8 13 13 3 5 9
split_gain=12.0798 5.98382 4.33796 1.44174 0.722424 1.29244 0.0462033 0.00888502 0.000801701 0.000204004 9.41582e-05 7.71695e-05 1.03129e-05 4.05555e-06 7.43169e-06 5.98938e-07
threshold=120.80000000000003 0.26415000000000005 24.265000000000004 0.048405000000000011 112.05000000000001 815.20000000000016 38.960000000000001 0.15555000000000002 0.044740000000000009 49.63000000000001 28.730000000000004 0.19580000000000003 0.41525000000000006 0.059285000000000004 0.013715000000000003 12.08
decision_type=2 2 2 2 2 2 2 2 2 2 2 2 2 2 2 2
left_child=1 4 3 -3 5 6 8 -2 10 -9 11 13 -11 14 -1 -15
right_child=7 2 -4 -5 -6 -7 -8 9 -10 12 -12 -13 -14 15 -16 -17
leaf_value=0.10386053125753106 -0.11523200017966125 0.11758124408816373 -0.082635595410076909 -0.00048620488532983598 0.18018268402621551 -0.013008753440567691 0.12765266945432768 -0.10808314657976162 0.10754453562074223 -0.10683936684276692 0.10527076018928859 0.10501520540387779 -0.10647526404196124 0.10389902501378577 0.10426066856914545 0.10379048921216348
leaf_weight=1.1446587182581476 1.8499009758234013 2.1567638181149942 4.272817574441433 1.9871856495738027 1.0858994126319874 1.0040179826319215 1.0078001618385313 1.3211079612374304 0.84193335846066464 1.2516971267759802 0.76857345178723324 0.7517414093017577 2.0552003309130669 0.75733548030257258 0.78076293691992749 1.5470280293375251
leaf_count=32 21 28 32 13 6 10 8 20 14 21 17 17 36 21 20 44
internal_value=0 0.0497461 -0.0119355 0.0609633 0.103324 0.0936239 0.107711 -0.109374 0.104663 -0.107033 0.104241 0.104082 -0.106613 0.103916 0.104023 0.103826
internal_weight=0 18.1065 8.41677 4.14395 9.68975 8.60385 7.59983 6.47791 6.59203 4.62801 5.7501 4.98153 3.3069 4.22979 1.92542 2.30436
internal_count=360 262 73 41 189 183 173 98 165 77 151 134 57 117 52 65
shrinkage=0.1


Tree=24
num_leaves=16
num_cat=0
split_feature=10 13 8 5 10 2 8 14 10 4 8 8 13 13 5
split_gain=10.709 5.35154 3.65499 1.41747 0.606776 1.58916 0.0354938 0.00660755 0.00118715 0.000160676 0.00014925 3.22938e-05 7.50468e-06 3.42769e-06 9.75634e-07
threshold=120.80000000000003 0.26415000000000005 24.265000000000004 0.050060000000000007 113.85000000000001 674.65000000000009 39.635000000000012 0.15555000000000002 101.00000000000001 0.047080000000000004 49.63000000000001 26.875000000000004 0.41525000000000006 0.12975000000000003 0.016985000000000004
decision_type=2 2 2 2 2 2 2 2 2 2 2 2 2 2 2
left_child=1 4 3 -3 5 6 8 -2 9 11 -9 13 -12 14 -1
right_child=7 2 -4 -5 -6 -7 -8 10 -10 -11 12 -13 -14 -15 -16
leaf_value=0.10347265513262616 -0.11371419420172924 0.11561523644835335 -0.076625593571959374 -0.0040068574357507766 0.17741606186312039 -0.039139734398607025 0.1252742414644421 -0.10726186354331442 0.10833231651636394 0.10499136492591983 -0.10614682066646848 0.10434297215067101 -0.1058212832142722 0.10373152469903475 0.10360290886111241
leaf_weight=1.4911834485828919 1.6950565613806237 2.0423778854310499 4.153591301292181 1.9235074967145918 0.9315429627895363 0.82693016156554211 0.94678296148776997 1.2040727175772188 0.71537899039685715 1.2695753760635851 1.1395942158997061 0.67812705598771561 1.8705275803804395 1.1655520088970659 0.93600818887352932
leaf_count=46 21 29 32 12 5 8 8 20 12 30 21 18 36 34 28
internal_value=0 0.0477378 -0.0110658 0.0575969 0.101019 0.0921556 0.10723 -0.108442 0.104499 0.104004 -0.106321 0.10371 -0.105945 0.103591 0.103523
internal_weight=0 17.0806 8.11948 3.96589 8.96108 8.02954 7.20261 5.90925 6.25583 5.54045 4.21419 4.27087 3.01012 3.59274 2.42719
internal_count=360 262 73 41 189 184 176 98 168 156 77 126 57 108 74
shrinkage=0.1


Tree=25
num_leaves=18
num_cat=0
split_feature=13 11 14 8 5 11 11 9 14 8 14 3 5 13 13 1 3
split_gain=8.48587 3.69997 2.08009 1.33564 0.73603 0.335959 0.149682 0.00987344 0.000164905 8.06519e-05 1.42179e-05 2.50806e-06 5.49882e-06 1.63294e-06 1.22686e-06 7.32813e-08 3.5801e-08
threshold=0.21640000000000004 864.55000000000007 0.12230000000000001 39.635000000000012 0.035450000000000002 969.20000000000016 1137.0000000000002 16.225000000000005 0.16705 30.430000000000003 0.089680000000000024 0.058750000000000004 0.013395000000000002 0.42425000000000007 0.57545000000000013 71.435000000000016 0.078305000000000013
decision_type=2 2 2 2 2 2 2 2 2 2 2 2 2 2 2 2 2
left_child=3 2 4 7 -2 -3 -7 9 -8 10 11 12 -1 -10 -15 -13 -17
right_child=1 5 -4 -5 -6 6 8 -9 13 -11 -12 15 -14 14 -16 16 -18
leaf_value=0.10313488131531152 0.0096386635141462833 -0.063711673021587728 -0.038758378014654954 0.0034317655309058087 0.12090169034867432 -0.14317687844311408 -0.10667881371374784 0.11656187301086696 -0.10539653354361456 0.10448444067282048 0.10372504286235654 0.10314213915178914 0.10351004456600782 -0.1051616747630231 -0.10531707047756733 0.10308402029257875 0.10311863671221549
leaf_weight=0.97224839404225638 1.0518820397555813 1.6356357373297212 5.4924597181379795 1.7043575122952459 1.3675278462469576 1.4273830465972421 1.1947461925446985 0.65197237953543652 0.96594247594475779 0.63285548798739899 0.59093905054032791 0.67845303192734707 0.65314568765461445 1.0261819399893286 1.0062558837234972 0.6093800403177736 0.58613460697233677
leaf_count=33 26 15 36 13 17 15 21 8 20 16 18 23 20 22 21 21 20
internal_value=0 -0.0520261 -0.00472754 0.0805678 0.0725281 -0.103599 -0.115207 0.105026 -0.105685 0.103434 0.103271 0.103195 0.103286 -0.105289 -0.105239 0.103116 0.103101
internal_weight=0 15.168 7.91187 7.07949 2.41941 7.25615 5.62051 5.37513 4.19313 4.72316 4.0903 3.49936 1.62539 2.99838 2.03244 1.87397 1.19551
internal_count=365 193 79 172 43 114 99 159 84 151 135 117 53 63 43 64 41
shrinkage=0.1


Tree=26
num_leaves=18
num_cat=0
split_feature=13 11 1 9 5 3 6 8 8 2 6 5 13 5 3 1 6
split_gain=7.36742 3.74218 1.7863 3.55687 1.35663 1.11864 2.99204 1.42901 0.584601 0.196645 0.123663 0.00610501 0.000863102 5.15644e-06 4.72688e-07 9.54403e-08 7.4027e-08
threshold=0.20440000000000003 650.80000000000007 87.860000000000014 17.290000000000003 0.056480000000000009 0.059285000000000004 0.34945000000000009 44.525000000000006 32.600000000000001 761.50000000000011 0.50380000000000014 0.042230000000000011 0.34970000000000007 0.013715000000000003 0.16605000000000003 71.435000000000016 0.27600000000000008
decision_type=2 2 2 2 2 2 2 2 2 2 2 2 2 2 2 2 2
left_child=5 4 -3 -4 -2 6 13 8 11 -5 -11 15 -12 -1 -14 -7 -17
right_child=1 2 3 9 -6 7 -8 -9 -10 10 12 -13 14 -15 -16 16 -18
leaf_value=0.10283078465707679 0.11034838027269539 -0.17098681537959015 0.014965992999989457 -0.13699019513786492 -0.020796809923043259 0.10283786865330165 -0.15414345696796775 0.22932750287378562 0.0031697996372987824 -0.06920015343565851 -0.10808021801750384 0.11446980733903518 -0.10467375198097495 0.1032099622004157 -0.10477066627946813 0.10281278820106146 0.10276536368596111
leaf_weight=0.8296090643852978 1.685891700908541 1.6198763176798809 4.030302479863165 1.5461828671395776 1.4823093339800832 0.61640977114439088 0.65549047105014313 0.83844073861837376 0.71699529886245716 1.2688973583281038 1.2351319007575514 0.5840755496174096 0.93778686597943339 0.63175853155553341 1.086162459105253 0.69127098843455292 0.62830424308776855
leaf_count=31 36 15 34 20 8 23 12 7 11 20 21 9 22 21 25 26 24
internal_value=0 -0.0474415 -0.0734995 -0.057871 0.0489894 0.0823455 0.0233712 0.112977 0.0828411 -0.106199 -0.0956853 0.105509 -0.105997 0.102995 -0.104726 0.102805 0.10279
internal_weight=0 14.8925 11.7243 10.1045 3.1682 6.19235 2.11686 4.0755 3.23706 6.07416 4.52798 2.52006 3.25908 1.46137 2.02395 1.93599 1.31958
internal_count=365 201 157 142 44 164 64 100 93 108 88 82 68 52 47 73 50
shrinkage=0.1


Tree=27
num_leaves=18
num_cat=0
split_feature=13 9 4 3 8 13 8 11 9 9 8 12 9 3 8 7 6
split_gain=6.36621 3.87972 2.25962 3.4895 3.03443 1.38106 1.05646 0.262745 0.00499696 0.000912157 0.000108128 6.59498e-06 5.92136e-06 2.49778e-06 9.16238e-07 8.78668e-08 3.78083e-08
threshold=0.20440000000000003 12.805000000000001 0.14535000000000001 0.078920000000000018 24.065000000000005 0.32565000000000005 39.635000000000012 734.05000000000007 15.995000000000003 20.030000000000005 30.430000000000003 0.31890000000000002 14.815000000000003 0.059285000000000004 15.725000000000001 2.1565000000000003 0.24475000000000005
decision_type=2 2 2 2 2 2 2 2 2 2 2 2 2 2 2 2 2
left_child=6 -2 3 -3 -5 -6 8 -4 10 -9 12 -11 13 14 -1 16 -15
right_child=1 2 7 4 5 -7 -8 9 -10 11 -12 -13 -14 15 -16 -17 -18
leaf_value=0.10262842005302029 0.12444633960808277 -0.16151793545948642 -0.16261867686724713 0.076255973078859229 -0.0019431561720605591 -0.12057740810771506 0.0070838903922471001 -0.10790156954042165 0.1130054303702933 -0.10461933062970999 0.10419358325982236 -0.10426217178545807 0.10300295921619365 0.10253818808220234 0.10280287012930066 0.10256903068317243 0.10249845827239434
leaf_weight=0.52266973257065197 1.2343635298311699 1.6578621435910443 1.0669520273804654 2.9749450143426657 2.0940322931855921 1.846614923328161 1.5105251483619211 1.1206279434263708 0.56283651664853085 0.82979454472661052 0.55395823530852784 1.3715209998190401 0.48438202217221249 0.48272258602082707 0.71010413207113743 0.5361245721578598 0.47543900087475777
leaf_count=21 18 19 7 31 25 26 12 20 9 20 15 35 18 20 27 22 20
internal_value=0 -0.0449589 -0.0610908 -0.031218 1.85456e-05 -0.057536 0.079088 -0.119446 0.104217 -0.105579 0.102903 -0.104397 0.102681 0.102624 0.102729 0.102537 0.102518
internal_weight=0 14.1967 12.9623 8.57345 6.91559 3.94065 5.83876 4.3889 4.32824 3.32194 3.7654 2.20132 3.21144 2.72706 1.23277 1.49429 0.958162
internal_count=365 201 183 101 82 51 164 82 152 75 143 55 128 110 48 62 40
shrinkage=0.1


Tree=28
num_leaves=18
num_cat=0
split_feature=13 11 14 12 8 11 11 9 14 8 14 3 13 8 13 1 6
split_gain=5.57829 3.00292 1.61098 1.58167 1.3662 1.02942 0.0942083 0.00432665 0.00012772 9.30677e-05 4.79729e-06 2.01308e-06 1.89397e-06 1.2543e-06 4.11441e-07 4.20431e-08 3.74437e-08
threshold=0.21640000000000004 969.20000000000016 0.12230000000000001 0.24095000000000003 39.635000000000012 727.10000000000002 1095.0000000000002 16.225000000000005 0.16505000000000003 31.005000000000006 0.087895000000000015 0.059285000000000004 0.40835000000000005 18.285 0.57545000000000013 71.435000000000016 0.27345000000000003
decision_type=2 2 2 2 2 2 2 2 2 2 2 2 2 2 2 2 2
left_child=4 2 3 -2 7 -4 -3 9 -8 10 11 13 -10 -1 -14 -13 -17
right_child=1 6 5 -5 -6 -7 8 -9 12 -11 -12 15 14 -15 -16 16 -18
leaf_value=0.10238328454045115 -0.029938158147817986 -0.1390815425307507 0.010748242691958948 0.11719429250575047 -0.0038148888953162177 -0.074626029093165833 -0.10525619209732057 0.1122173792585725 -0.10401490465066959 0.10390252571249668 0.10271206824087363 0.10231142056666892 -0.10377400856802076 0.10258821395581762 -0.10387559984839589 0.10229467394351609 0.10225365774127977
leaf_weight=0.77036894299090286 1.3517666999250635 1.0154046788811673 2.3315392062067986 1.5900729876011608 1.6437497511506078 3.5823582001030445 0.95549998432397876 0.54062883183360089 0.77463160082697902 0.49347189813852299 0.48997268639504898 0.48515261337161042 0.80512944981455781 0.48778305575251579 0.78963277116417885 0.46021007560193539 0.43102864921092987
leaf_count=34 20 12 16 27 13 31 21 8 21 14 20 22 23 20 22 21 20
internal_value=0 -0.0442818 -0.0108855 0.0495874 0.0733663 -0.0409674 -0.112422 0.103873 -0.10428 0.102626 0.102425 0.102371 -0.103887 0.102463 -0.103824 0.102288 0.102275
internal_weight=0 13.196 8.85574 2.94184 5.80237 5.9139 4.3403 4.15862 3.32489 3.61799 3.12452 2.63454 2.36939 1.25815 1.59476 1.37639 0.891239
internal_count=365 193 94 47 172 47 99 159 87 151 137 117 66 54 45 63 41
shrinkage=0.1


Tree=29
num_leaves=18
num_cat=0
split_feature=13 11 13 12 8 13 5 9 13 8 7 14 3 8 13 1 6
split_gain=4.83252 2.80145 1.52038 3.91545 1.30941 1.11101 0.0774281 0.00318374 0.000319003 6.83461e-05 4.0483e-06 3.54464e-06 1.48134e-06 9.22728e-07 3.16511e-07 3.09398e-08 2.75525e-08
threshold=0.21640000000000004 969.20000000000016 0.36630000000000007 0.21185000000000001 39.635000000000012 0.48385000000000006 0.063335000000000016 16.225000000000005 0.34970000000000007 31.005000000000006 3.5490000000000004 0.087895000000000015 0.059285000000000004 18.285 0.54740000000000011 71.435000000000016 0.27345000000000003
decision_type=2 2 2 2 2 2 2 2 2 2 2 2 2 2 2 2 2
left_child=4 2 3 -2 7 -4 -3 9 -8 11 -10 12 13 -1 -12 -14 -17
right_child=1 6 5 -5 -6 -7 8 -9 10 -11 14 -13 15 -15 -16 16 -18
leaf_value=0.10215138678406872 -0.091608166592041712 -0.13802241073925153 -0.10324353633047396 0.10863068445353555 -0.003433566755892676 -0.003511031462203803 -0.10578500518688433 0.11097865161189176 -0.10373101313409168 0.10351793942049695 -0.10339913641954834 0.10244815910083815 0.10208664413191677 0.10233595777970261 -0.10349087969765827 0.10207155619107947 0.10203460611513107
leaf_weight=0.69856046326458876 1.5626790132373551 0.86420991644263212 2.1073762755841017 2.6034376937896013 1.6436725594103334 2.3767018169164658 0.87183753587305579 0.49436170980334271 0.67893451265990767 0.44808612018823613 0.88938530907034852 0.44442952051758755 0.43990157917141892 0.44239690341055393 0.65151553973555565 0.4172791913151741 0.39080550707876682
leaf_count=34 15 11 17 39 13 23 20 8 20 14 28 20 22 20 20 21 20
internal_value=0 -0.0418513 -0.00997187 0.0335226 0.0710664 -0.0503822 -0.111561 0.103497 -0.104164 0.10237 -0.103528 0.102189 0.102141 0.102223 -0.103438 0.102065 0.102054
internal_weight=0 12.6061 8.65019 4.16612 5.41949 4.48408 3.95588 3.77582 3.09167 3.28146 2.21984 2.83337 2.38894 1.14096 1.5409 1.24799 0.808085
internal_count=365 193 94 54 172 40 99 159 88 151 68 137 117 54 48 63 41
shrinkage=0.1


Tree=30
num_leaves=16
num_cat=0
split_feature=10 14 11 1 13 4 14 7 8 13 13 6 14 3 3
split_gain=6.39212 3.37136 1.81005 2.51337 0.3146 1.60416 0.00990991 0.00678855 0.000363288 0.000374653 6.87776e-05 2.16054e-06 1.9728e-06 4.69648e-07 2.56194e-07
threshold=120.80000000000003 0.17575000000000002 739.85000000000002 97.490000000000023 0.47450000000000009 0.097135000000000013 0.12860000000000002 2.7805000000000004 32.980000000000011 0.21640000000000004 0.34405000000000002 0.34945000000000009 0.19355000000000003 0.059285000000000004 0.16915000000000002
decision_type=2 2 2 2 2 2 2 2 2 2 2 2 2 2 2
left_child=1 2 4 -4 5 6 8 -2 9 11 -9 13 -12 -1 -14
right_child=7 -3 3 -5 -6 -7 -8 10 -10 -11 12 -13 14 -15 -16
leaf_value=0.10195162610762126 -0.11343936407161151 -0.11681261663697583 -0.035723539565592426 0.10360611355800296 0.14162958418367008 -0.087060526026348006 0.11715798351767744 -0.10427998327096791 0.10549166581130021 0.10419309178073388 -0.10332524144382381 0.10212677697588579 -0.10305654847157851 0.10185005545247504 -0.10315025776278325
leaf_weight=0.87888083048165133 0.93961135856807176 1.1679602116346348 3.2973213531076908 2.1317254900932312 1.2966249734163282 0.48208953626453865 0.56736810877919186 0.83544413559138808 0.52075476013123978 1.0886793769896028 0.61613530479371537 0.53978907503187645 0.5754131209105251 0.94441634975373745 0.59179642610251904
leaf_count=47 16 14 39 14 8 8 7 22 12 33 20 27 20 53 20
internal_value=0 0.0452215 0.0613311 0.0189845 0.097716 0.0863779 0.104795 -0.106148 0.10303 0.102658 -0.103531 0.101951 -0.10318 0.101899 -0.103104
internal_weight=0 12.9156 11.7476 5.42905 6.3186 5.02198 4.53989 3.5584 3.97252 3.45177 2.61879 2.36309 1.78334 1.8233 1.16721
internal_count=360 262 248 53 195 187 179 98 172 160 82 127 60 100 40
shrinkage=0.1


Tree=31
num_leaves=17
num_cat=0
split_feature=10 14 11 1 5 14 7 13 8 9 13 14 6 7 3 3
split_gain=5.64701 2.92909 1.72213 2.06214 0.311047 0.0238055 0.00505736 0.000263506 0.000259506 0.000120079 5.04912e-05 1.45064e-06 1.22903e-06 8.73704e-07 1.87994e-07 1.63764e-07
threshold=120.80000000000003 0.17575000000000002 739.85000000000002 97.490000000000023 0.056480000000000009 0.13405000000000003 2.7805000000000004 0.21640000000000004 32.980000000000011 13.825000000000001 0.34405000000000002 0.19355000000000003 0.34945000000000009 1.2350000000000001 0.16915000000000002 0.060585000000000007
decision_type=2 2 2 2 2 2 2 2 2 2 2 2 2 2 2 2
left_child=1 2 4 -4 5 7 -2 8 12 -9 -8 -12 13 -1 -13 -15
right_child=6 -3 3 -5 -6 -7 10 9 -10 -11 11 14 -14 15 -16 -17
leaf_value=0.10187555996617248 -0.11213480004711035 -0.11511705363507244 -0.032136436053789241 0.094573815869743894 0.046027943529397201 0.12055810320304512 -0.10385738509611964 0.10304325344620227 0.10452985495142873 0.10499029394725279 -0.10299907020265253 -0.10275724542865959 0.1019230347490479 0.10174469644324191 -0.10284151602528374 0.10167349882976551
leaf_weight=0.38586318306624834 0.85958075523376587 1.0715814847499121 3.2987635731697083 2.1033211052417755 1.0437687579542396 0.93683738261461247 0.75886018201708827 0.66368794627487637 0.40815188549458969 0.60593689791858196 0.55917776562273491 0.52209457568824269 0.48972957208752621 0.57114697061479069 0.53700520470738411 0.74376641493290663
leaf_count=22 16 14 39 14 8 7 22 25 11 15 20 20 27 34 20 46
internal_value=0 0.0428616 0.057908 0.0171987 0.0955076 0.106256 -0.105561 0.102792 0.102215 0.103972 -0.103184 -0.102869 0.101783 0.101743 -0.1028 0.101704
internal_weight=0 12.3226 11.251 5.40208 5.84889 4.80512 3.23672 3.86828 2.59866 1.26962 2.37714 1.61828 2.19051 1.70078 1.0591 1.31491
internal_count=360 262 248 53 195 187 98 180 140 40 82 60 129 102 40 80
shrinkage=0.1


Tree=32
num_leaves=17
num_cat=0
split_feature=10 13 8 5 3 4 0 10 5 5 8 13 10 10 12 12
split_gain=4.99231 2.73292 1.89051 1.03311 0.455556 0.298221 0.168301 0.00402754 0.00382707 0.00027748 0.000198562 0.000128953 2.83771e-05 8.38052e-06 2.91381e-06 3.64999e-08
threshold=120.80000000000003 0.26415000000000005 24.265000000000004 0.051855000000000005 0.047110000000000006 0.098230000000000012 16.135000000000002 105.95000000000002 0.065865000000000021 0.046735000000000006 32.600000000000001 0.21640000000000004 138.65000000000001 96.675000000000011 0.30595000000000006 0.40715000000000007
decision_type=2 2 2 2 2 2 2 2 2 2 2 2 2 2 2 2
left_child=1 4 3 -3 -1 6 7 9 -2 10 11 13 -10 -6 -14 -16
right_child=8 2 -4 -5 5 -7 -8 -9 12 -11 -12 -13 14 -15 15 -17
leaf_value=0.020098848001836991 -0.11103017354881679 0.1113608033110024 -0.059811279931688527 -0.0044526075278841634 0.10155861305679736 0.038791080835059964 0.16138780737822611 0.1113383241635432 -0.10345217363407262 0.10513293157494737 0.10454152478672314 0.10380007391976978 -0.10283129936685607 0.1021249836837036 -0.10252457783721514 -0.10256207374563329
leaf_weight=0.76642076577991058 0.78113859705627087 1.4664882756769659 3.1220963299274445 1.6223433613777158 1.3705154340714232 0.62560446932911862 0.60958138108253468 0.6925603263080119 0.59354297630488906 0.44376700650900591 0.3701841328293084 0.34022105671465386 0.52932916022837151 0.32279051188379515 0.52755426988005616 0.51115211471915245
leaf_count=31 15 30 32 11 91 5 3 8 20 12 10 12 20 17 22 21
internal_value=0 0.040615 -0.004935 0.0505323 0.0916662 0.103153 0.112856 0.104499 -0.105031 0.102835 0.102411 0.102024 -0.102863 0.101667 -0.10264 -0.102543
internal_weight=0 11.7526 6.21093 3.08883 5.54165 4.77522 4.14962 3.54004 2.94272 2.84748 2.40371 2.03353 2.16158 1.69331 1.56804 1.03871
internal_count=360 262 73 41 189 158 153 150 98 142 130 120 83 108 63 43
shrinkage=0.1


Tree=33
num_leaves=18
num_cat=0
split_feature=11 14 4 14 10 10 8 11 10 13 8 14 3 13 8 7 12
split_gain=4.47146 2.66111 1.50974 1.18592 0.0241894 0.0199882 0.00154681 0.00075936 0.000409276 0.000116634 3.27557e-05 2.7933e-05 1.32583e-06 7.54134e-07 2.79478e-07 2.47541e-07 6.25321e-08
threshold=874.85000000000014 0.17575000000000002 0.072750000000000009 0.12230000000000001 114.25000000000001 107.2 38.960000000000001 1095.0000000000002 102.40000000000002 0.21640000000000004 31.005000000000006 0.16135000000000002 0.056650000000000006 0.39300000000000007 16.460000000000004 2.3300000000000005 0.41760000000000008
decision_type=2 2 2 2 2 2 2 2 2 2 2 2 2 2 2 2 2
left_child=1 3 -2 5 -4 6 8 -6 9 10 12 -9 14 -13 -1 -14 -15
right_child=2 -3 4 -5 7 -7 -8 11 -10 -11 -12 13 15 16 -16 -17 -18
leaf_value=0.10150961668925332 0.01060642618418918 -0.1143112197649675 -0.12790119081638046 0.029207926063020358 -0.10639489924990482 0.12481610610056765 0.10867877733506111 -0.10316531448507767 0.10527895669896147 0.10300624177557603 0.10259883029879212 -0.10244093352309865 0.10137791907065519 -0.10226049698969082 0.10163709703236266 0.10148198220643577 -0.10231221794960804
leaf_weight=0.29195998329669048 1.6538511086255319 0.86528353393077928 0.48279135674238238 3.7980476943776011 0.70787196978926692 0.4801063835620879 0.45406311377882946 0.57271424494683731 0.45071047358214844 0.89029492624104012 0.30519147310405959 0.461772685870528 0.76274689007550456 0.4968736357986927 0.41845950484275818 0.32640992105007172 0.44143984839320183
leaf_count=20 13 11 4 32 18 4 7 20 12 36 13 20 57 23 27 23 20
internal_value=0 0.0524567 -0.0668186 0.0701018 -0.107296 0.105563 0.103192 -0.103585 0.10247 0.102047 0.101641 -0.102577 0.101478 -0.102336 0.101585 0.101409 -0.102285
internal_weight=0 9.04327 4.81731 8.17799 3.16346 4.37994 3.89984 2.68067 3.44577 2.99506 2.10477 1.9728 1.79958 1.40009 0.710419 1.08916 0.938313
internal_count=360 242 118 231 105 199 195 101 188 176 140 83 127 63 47 80 43
shrinkage=0.1


Tree=34
num_leaves=17
num_cat=0
split_feature=10 13 8 0 3 4 0 5 10 14 8 10 13 1 12 12
split_gain=4.01672 2.28748 1.52785 0.878314 0.519082 0.281787 0.117544 0.00308622 0.00235165 0.000183313 0.00017705 1.51959e-05 1.42641e-05 1.3148e-05 1.57519e-06 1.98762e-08
threshold=120.80000000000003 0.26415000000000005 24.265000000000004 13.275 0.046575000000000012 0.098230000000000012 16.135000000000002 0.065865000000000021 105.95000000000002 0.11460000000000002 34.065000000000005 138.65000000000001 0.19580000000000003 87.860000000000014 0.30595000000000006 0.40715000000000007
decision_type=2 2 2 2 2 2 2 2 2 2 2 2 2 2 2 2
left_child=1 4 3 -3 -1 6 8 -2 9 10 12 -9 13 -6 -13 -16
right_child=7 2 -4 -5 5 -7 -8 11 -10 -11 -12 14 -14 -15 15 -17
leaf_value=0.0058894636764276328 -0.11022662198024435 -0.0071090162927333507 -0.055685244161358796 0.10396734564763953 0.10129977222281319 0.036940574825745719 0.15304839722631527 -0.10280594548134321 0.10935047104556637 0.10450529517298229 0.10409529768003517 -0.10230564839765317 0.10222289602678164 0.10205109105308877 -0.10205693158862 -0.10208744509871073
leaf_weight=0.66339952778070976 0.68606517836451653 1.460421438328922 2.9442384839057922 1.3888919744640587 1.1550779109820739 0.58734218403697003 0.57613345980644215 0.48814770765602578 0.59676857292652119 0.33537043910473574 0.33339970745146263 0.43545557931065537 0.28711361717432726 0.29175465367734421 0.43377494998276234 0.42033935151994228
leaf_count=28 15 27 32 14 92 5 3 20 8 12 10 20 15 16 22 21
internal_value=0 0.0371933 -0.00516667 0.0470349 0.0880421 0.101134 0.111678 -0.104529 0.103732 0.102337 0.101985 -0.102331 0.101579 0.101451 -0.102151 -0.102072
internal_weight=0 10.6199 5.79355 2.84931 4.82636 4.16296 3.57562 2.46378 2.99948 2.40272 2.06735 1.77772 1.73395 1.44683 1.28957 0.854114
internal_count=360 262 73 41 189 161 156 98 153 145 133 83 123 108 63 43
shrinkage=0.1


Tree=35
num_leaves=18
num_cat=0
split_feature=10 3 13 7 14 2 7 14 8 4 14 11 4 9 6 7 0
split_gain=3.27415 4.50614 4.93248 3.19643 1.50804 2.77979 1.45462 1.20467 1.00672 0.0339134 0.0225769 0.00285414 8.51423e-05 7.29327e-05 2.55011e-06 2.25596e-07 2.73929e-08
threshold=85.095000000000013 0.059745000000000006 0.32565000000000005 1.542 0.086355000000000015 659.25000000000011 1.8960000000000001 0.082890000000000005 24.265000000000004 0.22645000000000001 0.14620000000000002 815.20000000000016 0.05877000000000001 20.200000000000006 0.34235000000000004 1.4920000000000002 19.570000000000004
decision_type=2 2 2 2 2 2 2 2 2 2 2 2 2 2 2 2 2
left_child=9 -2 4 -4 7 -6 -5 -3 -8 12 -10 -12 14 -13 15 -1 -15
right_child=1 2 3 6 5 -7 8 -9 10 -11 11 13 -14 16 -16 -17 -18
leaf_value=0.10126847936037534 -0.23344241715114508 0.070283687006837486 0.10041574907034348 -0.21428294714543986 0.12347769487853069 -0.054495422694239459 0.020134745909634131 0.26489420162062233 -0.12546213198709694 0.13234581710425378 -0.11088120157577448 -0.10334043184383419 0.10312477945831325 -0.10185237159979808 0.1015805468286694 0.10115402045055011 -0.10188379599434544
leaf_weight=0.34096556901931829 1.0359969232231367 0.77701952867209712 0.83236612007021893 1.0763444956392048 1.5800426071509721 1.974104721099138 0.76382408663630519 0.5385323679074645 0.67033242620527778 0.50476759672164906 0.51384297385811839 0.48280184157192696 0.35637205559760332 0.51734706386923768 0.25555411912500858 0.34790132660418749 0.59809032082557678
leaf_count=28 32 38 6 8 37 31 13 10 6 3 7 20 15 29 18 31 33
internal_value=0 -0.0346229 -0.0146729 -0.0799785 0.0584813 0.0246249 -0.112461 0.149949 -0.0815566 0.110345 -0.109473 -0.104398 0.101808 -0.102314 0.101311 0.101211 -0.101869
internal_weight=0 11.3606 10.3246 5.45495 4.8697 3.55415 4.62258 1.31555 3.54624 1.80556 2.78241 2.11208 1.30079 1.59824 0.944421 0.688867 1.11544
internal_count=365 270 238 122 116 68 116 48 108 95 95 89 92 82 77 59 62
shrinkage=0.1


Tree=36
num_leaves=20
num_cat=0
split_feature=10 3 13 7 2 4 12 4 13 12 4 9 2 10 4 7 6 7 0
split_gain=2.86251 3.0706 4.2151 2.73613 1.29964 1.21169 1.07829 1.17918 0.269625 0.0516605 0.0243246 0.00544884 0.000577263 6.76951e-05 6.28907e-05 3.94441e-05 1.88498e-06 1.66612e-07 2.64867e-08
threshold=85.095000000000013 0.059745000000000006 0.32565000000000005 1.542 659.25000000000011 0.054925000000000009 0.29310000000000008 0.10330000000000002 0.30700000000000005 0.24540000000000003 0.22645000000000001 16.275000000000002 593.95000000000016 133.00000000000003 0.05877000000000001 2.4960000000000004 0.34235000000000004 1.4920000000000002 19.850000000000005
decision_type=2 2 2 2 2 2 2 2 2 2 2 2 2 2 2 2 2 2 2
left_child=10 -2 4 -4 8 -6 -5 -8 9 12 14 -9 15 -13 16 -3 17 -1 -15
right_child=1 2 3 6 5 -7 7 11 -10 -11 -12 13 -14 18 -16 -17 -18 -19 -20
leaf_value=0.10114636022805257 -0.18547583038028034 0.10146126322060567 0.091675257423570841 -0.18263213249503962 0.1003632334342216 -0.041772187356110199 0.04572515201934256 -0.1117901880535907 0.17270199670096248 0.061859842546425181 0.12854829702073539 -0.10317799543143587 0.10704584155448932 -0.10166921793548873 0.10282165700279317 0.10297603134683918 0.10142824786899579 0.10104300923906213 -0.10170622342942853
leaf_weight=0.30887193791568346 1.16554888896644 0.42773899715393626 0.82115213386714447 1.3237305004149673 0.92790855001658235 1.6960505675524471 0.64320746622979674 1.1201770678162577 0.57734798081219185 0.409001207910478 0.46952398121356953 0.48990571312606312 0.3459404120221734 0.4679582305252552 0.32336097024381161 0.2874155743047595 0.23156446870416403 0.31512239016592503 0.32968268170952797
leaf_count=28 32 35 6 22 12 28 11 14 5 15 3 20 7 29 15 14 18 31 20
internal_value=0 -0.0319783 -0.0138467 -0.0758198 0.0550835 0.00849105 -0.10726 -0.0745573 0.114795 0.0920539 0.1093 -0.10669 0.103692 -0.102253 0.101634 0.10207 0.101185 0.101094 -0.101685
internal_weight=0 11.0328 9.86722 5.19581 4.6714 2.62396 4.37466 3.05093 2.04744 1.4701 1.64844 2.40772 1.06109 1.28755 1.17892 0.715155 0.855559 0.623994 0.797641
internal_count=365 270 238 122 116 40 116 94 76 71 95 83 56 69 92 49 77 59 49
shrinkage=0.1


Tree=37
num_leaves=20
num_cat=0
split_feature=10 1 4 9 0 11 14 4 4 5 4 11 9 4 3 6 10 7 14
split_gain=2.50888 2.32592 2.72847 1.81847 2.21353 1.05824 0.435152 0.434009 1.32262 0.125836 0.017517 0.000714493 0.000614274 4.64677e-05 2.03014e-05 1.39363e-06 1.23374e-06 1.23099e-07 3.116e-08
threshold=85.095000000000013 81.825000000000017 0.11970000000000001 16.795000000000005 15.635000000000002 552.65000000000009 0.1358 0.084675000000000014 0.071020000000000014 0.068095000000000017 0.22645000000000001 926.6500000000002 16.225000000000005 0.05877000000000001 0.059745000000000006 0.34235000000000004 142.05000000000004 1.4920000000000002 0.19850000000000004
decision_type=2 2 2 2 2 2 2 2 2 2 2 2 2 2 2 2 2 2 2
left_child=10 5 3 7 -5 -2 -4 8 12 -8 13 -11 14 15 -3 17 -13 -1 -18
right_child=1 2 6 4 -6 -7 9 -9 -10 11 -12 16 -14 -15 -16 -17 18 -19 -20
leaf_value=0.10103612318756079 -0.05312365029250643 0.10267340043844267 -0.019900340150624821 -0.12091827828665591 0.043632870285690628 -0.21773381946440284 -0.1629216624479759 0.12588382816463436 -0.084799601003368641 -0.10606447343850041 0.12527381959489006 -0.10175282070639163 0.10685564971487536 0.10254844288079495 0.10170557248748013 0.10129078989012744 -0.10155442090522387 0.10094277879554921 -0.10151360893535244
leaf_weight=0.2797683076933033 0.72388179646804818 0.45734292082488381 0.61383614130318198 1.4119588546454909 1.9416772332042453 0.84812335018068552 0.44301153719425235 1.2607636805623768 0.52229664521291841 0.51932555623352517 0.43537200987339009 0.35578673705458619 0.4244633512571454 0.29332893062382936 0.41196713363751769 0.20979807060211897 0.29934572149068117 0.28540324792265892 0.49881382007151842
leaf_count=28 19 20 6 12 29 28 5 16 7 11 3 22 9 15 32 18 20 31 34
internal_value=0 -0.0295559 -0.0102713 0.0252892 -0.025647 -0.141934 -0.0940297 0.0808077 0.0495146 -0.115531 0.108367 -0.102984 0.103737 0.101476 0.102215 0.101071 -0.101598 0.100989 -0.101529
internal_weight=0 10.7326 9.16059 6.43047 3.35364 1.57201 2.73012 3.07683 1.81607 2.11628 1.50367 1.67327 1.29377 1.0683 0.86931 0.77497 1.15395 0.565172 0.79816
internal_count=365 270 223 125 41 47 98 84 68 92 95 87 61 92 52 77 76 59 54
shrinkage=0.1


Tree=38
num_leaves=20
num_cat=0
split_feature=8 13 6 8 12 8 11 2 9 1 14 7 9 11 8 3 13 10 8
split_gain=2.21993 2.59273 2.70093 2.93753 2.12186 1.43543 1.49332 0.900838 0.0694906 0.0303749 0.0123647 0.000381496 0.000311456 0.000239744 6.37503e-05 1.47895e-05 1.29513e-05 4.33751e-07 6.27415e-08
threshold=13.935000000000002 0.20440000000000003 0.23860000000000001 23.865000000000006 0.08296000000000002 45.400000000000013 926.6500000000002 659.25000000000011 14.815000000000003 98.500000000000014 0.12035000000000001 1.2350000000000001 15.995000000000003 1260.5000000000002 32.600000000000001 0.058750000000000004 0.35920000000000007 85.835000000000022 69.000000000000014
decision_type=2 2 2 2 2 2 2 2 2 2 2 2 2 2 2 2 2 2 2
left_child=8 4 -3 -4 -2 6 12 -5 11 -9 -11 -1 14 -12 15 -6 -15 -17 -18
right_child=1 2 3 7 5 -7 -8 9 -10 10 13 -13 -14 16 -16 17 18 -19 -20
leaf_value=0.10175710362122987 -0.17009786098807309 -0.15558944547999468 0.10481049728191778 -0.0098830369406764079 0.10175446523480569 0.23427769176399105 -0.091577407608670766 -0.080191619898277069 0.15634527568481035 -0.12169950499450066 -0.10456194496968728 0.10699145080903456 0.10547458278221436 -0.10209643268272509 0.1030396761364016 0.10083776563422096 -0.10141790084395932 0.10101351433312272 -0.10135814303204399
leaf_weight=0.2841901313513524 0.363869271241127 1.9918912462890146 1.4129023095592854 1.9532510964199898 0.36406712699681587 0.53122233785688866 0.54648323357105244 0.56416520662605796 0.47619700990617275 0.42209854722022999 0.36484299693256605 0.27299615181982517 0.25614659767597903 0.37649874016642548 0.25390356127172709 0.23805544804781675 0.27443745918571949 0.34242565184831619 0.4883324783295393
leaf_count=24 17 22 29 33 25 5 4 7 3 4 15 16 8 20 11 29 20 36 37
internal_value=0 -0.0251595 -0.0549999 -0.0207879 0.0557058 0.0881518 0.0493601 -0.0607233 0.128295 -0.100598 -0.106575 0.104322 0.102309 -0.102331 0.101633 0.101255 -0.101617 0.100941 -0.10138
internal_weight=0 10.7446 7.84842 5.85653 2.89617 2.5323 2.00108 4.44363 1.03338 2.49038 1.92621 0.557186 1.4546 1.50411 1.19845 0.944548 1.13927 0.580481 0.76277
internal_count=365 322 187 165 135 118 113 136 43 103 96 40 109 92 101 90 77 65 57
shrinkage=0.1


Tree=39
num_leaves=21
num_cat=0
split_feature=10 3 13 7 2 13 4 14 13 3 4 9 5 9 5 1 6 12 12 7
split_gain=2.04298 1.9163 3.11342 1.98555 1.12595 1.68088 0.734269 0.291058 0.148514 0.0500629 0.0119024 0.00245642 0.000250734 4.15343e-05 2.34606e-05 8.2559e-06 1.98106e-06 6.24858e-07 2.01964e-07 2.04323e-08
threshold=85.095000000000013 0.059745000000000006 0.33175000000000004 1.542 659.25000000000011 0.23200000000000001 0.10330000000000002 0.14360000000000003 0.30700000000000005 0.10930000000000002 0.22645000000000001 16.275000000000002 0.038060000000000004 19.765000000000004 0.037080000000000009 82.65000000000002 0.34945000000000009 0.18075000000000002 0.10340000000000001 4.5695000000000006
decision_type=2 2 2 2 2 2 2 2 2 2 2 2 2 2 2 2 2 2 2 2
left_child=10 -2 4 -4 8 -6 -5 -8 9 12 14 -9 15 -13 16 -3 17 18 -1 -15
right_child=1 2 3 6 5 -7 7 11 -10 -11 -12 13 -14 19 -16 -17 -18 -19 -20 -21
leaf_value=0.10090507220852366 -0.14055331187837358 0.10191370564528826 0.080819454623539233 -0.020534716722246913 0.089346771611681558 -0.07379775406327567 -0.17790559749162405 -0.10870412365336937 0.15164844178199502 0.058736691141118326 0.12221190327201481 -0.10251450714620305 0.10506320830308649 -0.10125704561648577 0.10225841196359303 0.10113500535576339 0.10128049100512145 0.10106507430872279 0.10075850304584584 -0.10122375457106166
leaf_weight=0.18258213112130828 1.275476331822573 0.36809650901704827 0.73870196379721154 0.90169246029108796 1.2499591652303936 1.2764191050082443 0.74443797022104297 0.88432613573968444 0.57732459809631098 0.35697445692494512 0.38660638034343719 0.38719938043504931 0.33322532614693046 0.33028589934110641 0.18536402564495802 0.21607340779155493 0.18373941583558917 0.16085721785202622 0.19380505522713065 0.41726725641638041
leaf_count=21 32 26 5 14 16 26 4 14 6 11 3 20 11 27 11 23 17 17 26 35
internal_value=0 -0.0260159 -0.00938075 -0.0687477 0.0503366 0.00692016 -0.0988921 -0.124459 0.109572 0.0905105 0.107521 -0.104753 0.102874 -0.101674 0.101255 0.101626 0.100997 0.1009 0.10083 -0.101238
internal_weight=0 10.0575 8.78198 4.40391 4.37807 2.52638 3.66521 2.76352 1.85169 1.27437 1.29295 2.01908 0.917395 1.13475 0.906348 0.58417 0.720984 0.537244 0.376387 0.747553
internal_count=365 270 238 119 119 42 114 100 77 71 95 96 60 82 92 49 81 64 47 62
shrinkage=0.1


Tree=40
num_leaves=18
num_cat=0
split_feature=10 5 3 11 5 13 14 9 11 10 8 10 13 11 12 4 1
split_gain=2.84504 1.56166 1.59861 0.794826 0.10281 0.00638847 0.00581096 0.00043706 0.000143635 4.16015e-05 1.77847e-05 1.58911e-05 4.85157e-06 4.29244e-06 3.55749e-07 7.1733e-07 3.60887e-08
threshold=120.80000000000003 0.048405000000000011 0.12970000000000001 926.6500000000002 0.043995000000000006 0.22655000000000003 0.11460000000000002 16.225000000000005 565.55000000000007 88.965000000000018 22.200000000000003 138.65000000000001 0.38125000000000003 514.65000000000009 0.20965000000000003 0.016200000000000003 129.80000000000004
decision_type=2 2 2 2 2 2 2 2 2 2 2 2 2 2 2 2 2
left_child=1 3 -3 4 6 -2 7 8 13 -10 -11 -7 -13 14 15 -1 -14
right_child=5 2 -4 -5 -6 11 -8 -9 9 10 -12 12 16 -15 -16 -17 -18
leaf_value=0.10094981695826616 -0.11673663699452337 -0.08651596146855961 0.045941030214623362 -0.00065517289881219327 0.049173923566774462 -0.10205915484060371 0.11179191485732676 0.10584074382437376 0.10360322089496272 0.10180212791780636 0.10278635226724782 -0.10163481230110749 -0.10116623449124187 0.10130314203534417 0.10098166754527893 0.1006994424204478 -0.1011131189182098
leaf_weight=0.20373048074543465 0.35499147325754243 1.555106698535383 2.2003813618794084 1.0122644230723379 0.36533610429614771 0.45319438911974408 0.92920559272170056 0.3277477929368614 0.34295509383082368 0.38640923844650388 0.34978660568594933 0.31238140258938074 0.2266544671729207 0.32146380096673965 0.16100924275815487 0.26105915755033493 0.29363496787846088
leaf_count=23 3 20 32 8 11 27 16 8 13 27 19 21 20 29 18 38 27
internal_value=0 0.0390801 -0.00890797 0.0777456 0.0994964 -0.104861 0.105096 0.102453 0.101905 0.102694 0.10227 -0.101583 -0.101323 0.101006 0.100854 0.100809 -0.101136
internal_weight=0 8.41646 3.75549 4.66097 3.6487 1.64086 3.28337 2.35416 2.02641 1.07915 0.736196 1.28587 0.832671 0.947263 0.625799 0.46479 0.520289
internal_count=360 262 52 210 202 98 191 175 167 59 46 95 68 108 79 61 47
shrinkage=0.1


Tree=41
num_leaves=16
num_cat=0
split_feature=10 13 5 3 3 1 13 11 8 9 10 13 10 7 1
split_gain=2.5098 1.48037 1.03789 1.09993 0.275842 0.0271327 0.00462834 0.000384037 3.89839e-05 1.99148e-05 1.17483e-05 3.58392e-06 6.49975e-07 3.76827e-08 2.66557e-08
threshold=120.80000000000003 0.23200000000000001 0.039275000000000004 0.12970000000000001 0.046575000000000012 98.500000000000014 0.22655000000000003 765.45000000000016 32.600000000000001 13.625000000000002 138.65000000000001 0.38125000000000003 83.820000000000007 1.6640000000000004 129.80000000000004
decision_type=2 2 2 2 2 2 2 2 2 2 2 2 2 2 2
left_child=1 4 -3 -4 -1 7 -2 8 9 12 -8 -12 13 -6 -13
right_child=6 2 3 -5 5 -7 10 -9 -10 -11 11 14 -14 -15 -16
leaf_value=0.033682420524646997 -0.11490881939385192 0.080111787923867847 -0.081091803890857128 0.026686816090706968 0.10061402696125608 0.12570005510041968 -0.10186051578314459 0.10508679268941963 0.10254825929373104 0.10164903607548065 -0.10147714331182944 -0.10105403683462955 0.10090772381115408 0.10068027266348629 -0.10100607213666624
leaf_weight=0.60222120396792744 0.32605592906475145 1.3506014384329317 1.7229309668764474 2.1022275388240814 0.13928872207179688 0.72556743770837773 0.41082620434463002 0.38387035811319936 0.25462878495454788 0.43501848680898547 0.28307120315730572 0.20530156139284372 0.14117503119632602 0.22388508915901184 0.26595915760844946
leaf_count=28 3 39 21 30 23 5 27 13 13 38 21 20 18 34 27
internal_value=0 0.0368184 0.00475008 -0.0218589 0.0939408 0.109695 -0.104377 0.102335 0.101451 0.101153 -0.10143 -0.101196 0.100726 0.100655 -0.101027
internal_weight=0 8.08142 5.17576 3.82516 2.90566 2.30343 1.49121 1.57787 1.194 0.939367 1.16516 0.754332 0.504349 0.363174 0.471261
internal_count=360 262 90 51 172 144 98 139 126 113 95 68 75 57 47
shrinkage=0.1


Tree=42
num_leaves=21
num_cat=0
split_feature=11 14 8 5 8 14 14 10 10 2 13 3 13 13 11 3 4 7 9 3
split_gain=2.24767 1.53643 0.927919 0.242684 0.147447 0.0122941 0.00769857 0.00131477 0.00045384 0.000158593 6.46301e-05 5.37667e-05 1.07991e-05 1.04315e-05 3.52203e-06 1.55489e-06 3.967e-07 3.28238e-07 1.03563e-07 9.651e-09
threshold=874.85000000000014 0.1358 33.605000000000011 0.033010000000000005 38.085000000000008 0.13405000000000003 0.12035000000000001 107.2 122.25000000000001 481.75000000000006 0.22655000000000003 0.052025000000000009 0.22440000000000002 0.32125000000000004 727.10000000000002 0.052285000000000005 0.14785000000000001 2.5655000000000006 12.805000000000001 0.17095000000000002
decision_type=2 2 2 2 2 2 2 2 2 2 2 2 2 2 2 2 2 2 2 2
left_child=1 4 -2 -4 5 7 -5 9 -8 12 11 -11 15 -10 -13 -1 -15 18 -17 -18
right_child=2 -3 3 6 -6 -7 8 -9 13 10 -12 14 -14 16 -16 17 19 -19 -20 -21
leaf_value=0.1009800826205297 0.03667675132331813 -0.0056767564955960657 -0.026701069858390811 -0.11607130696774354 0.050826513533764876 0.12543451854498419 -0.10632153832168777 0.10936479482829731 -0.10169147734238326 0.10316036505940651 0.10361339799876934 0.10110440486927966 0.10147818256544877 -0.10108013010427111 0.10168890230289147 0.10056422372368601 -0.10089634424222847 0.10080562587759774 0.10067767961604068 -0.10092736578541657
leaf_weight=0.23354223277419972 0.78531959373503957 2.8038721438497305 0.47845326364040408 0.61794531345367421 0.61844891123473633 0.26449804008007038 0.21407488267868735 0.26637157052755345 0.29678914323449135 0.28351091034710385 0.47234238497912884 0.2237769216299057 0.31552691990509629 0.21201703418046236 0.19115845393389463 0.19464508397504687 0.21102459821850061 0.11748136673122644 0.1371407900005579 0.19111044611781836
leaf_count=28 17 31 3 6 11 2 7 4 19 11 17 26 26 21 14 35 24 16 21 21
internal_value=0 0.048822 -0.056756 -0.0897866 0.0948699 0.104958 -0.107104 0.102735 -0.102178 0.10192 0.10271 0.102099 0.100994 -0.101205 0.101374 0.100771 -0.100969 0.100662 0.100611 -0.100911
internal_weight=0 6.12232 3.00673 2.22141 3.31844 2.69999 1.74296 2.4355 1.12502 2.16913 1.17079 0.698446 0.998336 0.910941 0.414935 0.682809 0.614152 0.449267 0.331786 0.402135
internal_count=360 242 118 101 211 200 98 198 92 194 68 51 126 85 40 100 66 72 56 45
shrinkage=0.1


Tree=43
num_leaves=17
num_cat=0
split_feature=10 13 8 1 3 1 4 11 8 9 10 13 4 10 7 1
split_gain=2.00731 1.29434 0.844307 0.796223 0.291729 0.0192336 0.00272487 0.000247392 2.61566e-05 1.31548e-05 9.41842e-06 2.05236e-06 1.76943e-06 5.051e-07 2.0591e-08 1.45439e-08
threshold=120.80000000000003 0.23200000000000001 24.265000000000004 85.635000000000019 0.046575000000000012 98.500000000000014 0.065830000000000014 765.45000000000016 34.530000000000008 13.625000000000002 138.65000000000001 0.38125000000000003 0.033825000000000008 83.820000000000007 1.6640000000000004 129.80000000000004
decision_type=2 2 2 2 2 2 2 2 2 2 2 2 2 2 2 2
left_child=1 4 3 -3 -1 7 -2 8 9 13 -8 -12 -11 14 -6 -13
right_child=6 2 -4 -5 5 -7 10 -9 -10 12 11 15 -14 -15 -16 -17
leaf_value=0.026759561833934992 -0.1124015559519585 -0.017992353307290789 -0.037389946366555578 0.097636805346511008 0.10050209314122355 0.12286288714095046 -0.101627345485517 0.10438068447916123 0.10241269810562746 0.10118831997843206 -0.10121445570047499 -0.10086123838142039 0.10160826728982159 0.10076928223844524 0.10055618571126351 -0.10082211694952742
leaf_weight=0.5511216772720221 0.2804741784930227 1.0848883697763088 2.5151071716099977 1.3202437721192835 0.11415061959996797 0.66591276973485936 0.3535354882478714 0.3284767777658999 0.15328330174088478 0.19604241801425815 0.23389679566025734 0.16838820464909077 0.20551400119438767 0.13393594650551677 0.18349418230354786 0.21812283899635077
leaf_count=28 3 33 37 20 23 5 27 13 8 21 21 20 20 20 34 27
internal_value=0 0.033015 0.00311874 0.0454797 0.0911115 0.109016 -0.103717 0.102004 0.101212 0.100991 -0.101215 -0.100981 0.101403 0.100608 0.100535 -0.100839
internal_weight=0 7.45217 4.92024 2.40513 2.53193 1.98081 1.25442 1.3149 0.98642 0.833137 0.973943 0.620408 0.401556 0.431581 0.297645 0.386511
internal_count=360 262 90 53 172 144 98 139 126 118 95 68 41 77 57 47
shrinkage=0.1


Tree=44
num_leaves=21
num_cat=0
split_feature=11 14 8 5 8 14 14 10 0 2 13 3 13 13 11 3 4 7 9 3
split_gain=1.80857 1.4298 0.743669 0.211965 0.157298 0.00967068 0.00478339 0.00107749 0.000324507 0.000100633 4.53701e-05 3.58491e-05 8.66575e-06 5.74747e-06 1.90667e-06 1.22596e-06 1.97651e-07 1.79133e-07 5.64354e-08 5.27322e-09
threshold=874.85000000000014 0.1358 33.605000000000011 0.033010000000000005 38.085000000000008 0.13405000000000003 0.12035000000000001 107.2 15.025000000000002 481.75000000000006 0.22655000000000003 0.052025000000000009 0.22440000000000002 0.32125000000000004 727.10000000000002 0.052285000000000005 0.14785000000000001 2.5655000000000006 12.805000000000001 0.17095000000000002
decision_type=2 2 2 2 2 2 2 2 2 2 2 2 2 2 2 2 2 2 2 2
left_child=1 4 -2 -4 5 7 -5 9 -8 12 11 -11 15 -10 -13 -1 -15 18 -17 -18
right_child=2 -3 3 6 -6 -7 8 -9 13 10 -12 14 -14 16 -16 17 19 -19 -20 -21
leaf_value=0.10084796538120525 0.031068368202523136 -0.0074044633394625848 -0.028353360583220355 -0.11370515313874129 0.046675144910978704 0.12358813458690861 -0.1056934999251477 0.1087179089966927 -0.10138092215124449 0.10270571139931256 0.10315451581536253 0.10090283769403761 0.10132428756649679 -0.1008747395679631 0.10137777193970043 0.10046144731115117 -0.10073253030663548 0.10065840355430336 0.10055396641726484 -0.10075785396279811
leaf_weight=0.20160656515509012 0.72311969380825791 2.7393031865358353 0.45793508738279332 0.54149804264307 0.5840733591467141 0.24243225902318943 0.18129578419029713 0.24571883305907238 0.24372946005314589 0.24627618025988318 0.41355159040540457 0.18349489104002714 0.28606383316218853 0.18049039132893085 0.15672856522724032 0.15951371053233743 0.17301820870488882 0.096295956987887621 0.11238029506057501 0.1567036509513855
leaf_count=28 17 31 3 6 11 2 6 4 19 11 17 26 26 22 14 35 24 16 21 21
internal_value=0 0.0445258 -0.0554539 -0.0877933 0.0931071 0.104677 -0.106226 0.102495 -0.101895 0.101671 0.102352 0.101787 0.100875 -0.100981 0.101122 0.10065 -0.100791 0.100541 0.1005 -0.100745
internal_weight=0 5.66744 2.65779 1.93467 2.92814 2.34406 1.47674 2.10163 0.935237 1.85591 1.00005 0.5865 0.85586 0.753942 0.340223 0.569797 0.510212 0.36819 0.271894 0.329722
internal_count=360 242 118 101 211 200 98 198 92 194 68 51 126 86 40 100 67 72 56 45
shrinkage=0.1


Tree=45
num_leaves=21
num_cat=0
split_feature=3 3 13 13 8 1 8 14 13 7 11 8 14 5 0 8 10 0 13 0
split_gain=2.34341 7.05671 2.98423 1.43418 2.06 1.55011 1.33055 0.650959 0.538389 0.466603 0.407793 0.223296 0.126456 0.0601996 0.00243159 0.00105444 5.11124e-05 1.21322e-05 2.61779e-06 1.80497e-06
threshold=0.059285000000000004 0.055485000000000007 0.10610000000000001 0.33175000000000004 13.935000000000002 71.850000000000009 29.485000000000003 0.10975000000000001 0.36630000000000007 1.8960000000000001 749.50000000000011 23.865000000000006 0.14115000000000003 0.023835000000000005 14.890000000000002 34.530000000000008 97.930000000000021 12.690000000000001 0.22440000000000002 17.555000000000003
decision_type=2 2 2 2 2 2 2 2 2 2 2 2 2 2 2 2 2 2 2 2
left_child=1 10 -2 6 -5 -6 12 -8 -7 -10 17 -11 13 -4 16 -13 18 -1 -15 -17
right_child=2 -3 3 4 5 8 7 -9 9 11 -12 15 -14 14 -16 19 -18 -19 -20 -21
leaf_value=0.10093182792156651 0.27892323443736861 -0.43548309320679118 0.04730709225397315 0.13182141495666172 0.1174074272922095 -0.023337219196724695 0.054453429817301273 -0.06958982523312067 -0.17320548771286662 -4.0889232004275045e-05 -0.051569896644457797 -0.10695572154435384 0.16286170836906011 0.10055254130579988 0.11278558892555275 -0.10107504799391276 0.10305094494367202 0.10194141394089939 0.10116270781673674 -0.10067626097748215
leaf_weight=0.20346422283910193 0.36998236319050182 0.50360297737643123 0.21824859152548037 0.53096703998744477 0.35872828215360675 0.68164415983483229 0.71090246504172672 1.0448898477479813 1.0753835737705233 0.25073979608714569 0.26970655750483274 0.64296927209943511 0.35915558412671078 0.13746001501567662 0.3502856008708477 0.17598092136904597 0.17247114097699523 0.28682461753487587 0.14394303830340505 0.3196650012396276
leaf_count=30 38 14 28 7 5 19 16 28 7 7 6 14 3 28 4 20 10 18 15 48
internal_value=0 -0.145176 0.00197076 -0.0123135 -0.0517357 -0.0795416 0.0384014 -0.019366 -0.101996 -0.12375 0.0471932 -0.0854709 0.111816 0.093885 0.106526 -0.104284 0.101695 0.101522 0.100865 -0.100818
internal_weight=0 1.2636 7.54342 7.17343 4.03608 3.50511 3.13736 1.75579 3.14638 2.46474 0.759995 1.38935 1.38156 1.02241 0.80416 1.13862 0.453874 0.490289 0.281403 0.495646
internal_count=365 68 297 259 127 120 132 44 115 96 54 89 88 85 57 82 53 48 43 68
shrinkage=0.1


Tree=46
num_leaves=19
num_cat=0
split_feature=3 5 13 13 8 1 2 13 7 5 13 3 9 0 9 10 13 4
split_gain=1.76325 5.0274 2.61561 1.2362 1.78205 1.33345 1.2418 0.52488 0.370085 0.231905 0.111044 0.0833035 0.000547839 0.000151306 1.59655e-05 8.40287e-06 8.06329e-06 1.17885e-06
threshold=0.059285000000000004 0.026450000000000005 0.10610000000000001 0.32565000000000005 13.935000000000002 71.850000000000009 659.25000000000011 0.36630000000000007 1.8960000000000001 0.055570000000000008 0.30700000000000005 0.1178 17.385000000000002 13.920000000000002 13.365 139.85000000000005 0.22440000000000002 0.052225000000000008
decision_type=2 2 2 2 2 2 2 2 2 2 2 2 2 2 2 2 2 2
left_child=1 14 -2 6 -5 -6 10 -7 -9 -10 11 13 -11 16 -1 -14 17 -4
right_child=2 -3 3 4 5 7 -8 8 9 12 -12 -13 15 -15 -16 -17 -18 -19
leaf_value=0.10061772337789049 0.27073631676708504 -0.29428204019555676 0.10042384539817797 0.12820275236750064 0.11563693664049882 -0.020622457465873704 -0.022184744100611282 -0.16420154437969087 0.0077562153697177038 -0.10549594469619877 0.14535918580921103 0.025491227398062574 -0.10145889756707922 0.10411061746689546 0.10173655730177343 -0.10060958596066696 0.10145351457011981 0.10088330845813952
leaf_weight=0.19517687498591818 0.34448817325755943 0.74742180109024048 0.16015692148357652 0.49329677689820561 0.32930548395961556 0.70248000044375691 1.6212843665853141 1.0235970318317416 0.22843841463327397 0.56201336439698912 0.49605967709794641 0.18033083155751228 0.18787250714376569 0.23514333739876747 0.36805034428834915 0.30660017905756831 0.18837016448378563 0.085734365042299032
leaf_count=35 38 8 39 7 5 22 37 7 5 14 6 8 19 7 25 51 18 14
internal_value=0 -0.124267 0.00191151 -0.0117058 -0.0492142 -0.0754152 0.0367568 -0.09631 -0.119342 -0.0836054 0.107764 0.0858165 -0.10336 0.102068 0.101349 -0.100932 0.100961 0.100584
internal_weight=0 1.31065 7.14517 6.80068 3.8336 3.34031 2.96708 3.011 2.30852 1.28492 1.3458 0.849736 1.05649 0.669405 0.563227 0.494473 0.434261 0.245891
internal_count=365 68 297 259 130 123 129 118 96 89 92 86 84 78 60 70 71 53
shrinkage=0.1


Tree=47
num_leaves=21
num_cat=0
split_feature=3 3 13 0 13 8 1 9 8 13 7 8 14 0 10 8 14 0 13 11
split_gain=1.42743 4.64856 2.21844 1.19894 1.06381 1.55677 1.1626 1.14183 0.696458 0.478854 0.296985 0.223938 0.0566595 0.00201025 0.000667456 0.000195371 0.000142923 2.47912e-05 9.73477e-06 9.66697e-08
threshold=0.059285000000000004 0.057395000000000009 0.10610000000000001 15.125000000000002 0.33175000000000004 13.935000000000002 71.850000000000009 18.885000000000002 29.485000000000003 0.36630000000000007 1.8960000000000001 23.865000000000006 0.14765000000000003 14.890000000000002 102.40000000000002 31.955000000000002 0.12170000000000002 12.690000000000001 0.22655000000000003 583.05000000000007
decision_type=2 2 2 2 2 2 2 2 2 2 2 2 2 2 2 2 2 2 2 2
left_child=1 3 -2 17 7 -6 -7 8 12 -8 -11 -12 13 16 -13 -16 18 -1 19 -4
right_child=2 -3 4 -5 5 6 9 -9 -10 10 11 14 -14 -15 15 -17 -18 -19 -20 -21
leaf_value=0.10074300223127174 0.2545021185192633 -0.4053762048042493 0.10038722021666605 -0.1337126791855997 0.12504847705913325 0.11405606550728038 -0.019059600600825705 -0.10655548534902329 0.0096171348696949596 -0.15647946932661277 0.0047593607060925844 -0.10799777702042906 0.15798279076428134 0.11170362231766993 -0.10424491694121407 -0.10075521917747872 0.10441623266700602 0.10214916442578484 0.10140381756194966 0.1005275259158472
leaf_weight=0.19086392945609965 0.33062540972605337 0.38238409115001559 0.12283562333323128 0.35417634248733521 0.45702990144491229 0.30188614968210492 0.67786001367494497 0.48083198070526112 1.2301098748575894 0.96949845366179976 0.23841432482004143 0.25763895362615585 0.26438808254897594 0.32625024765729904 0.25322911655530334 0.43777721002697945 0.16406570794060826 0.36543874908238649 0.21783258346840739 0.081813551485538483
leaf_count=34 38 8 33 2 7 5 19 22 23 7 7 4 2 4 8 70 8 24 22 18
internal_value=0 -0.112781 0.00183324 0.0101041 -0.0110556 -0.0473765 -0.0725026 0.0341338 0.062235 -0.0923725 -0.115417 -0.0818796 0.117218 0.105411 -0.103654 -0.102034 0.101911 0.101667 0.100939 0.100443
internal_weight=0 1.29286 6.81209 0.910479 6.48146 3.59333 3.1363 2.88813 2.4073 2.83442 2.15656 1.18706 1.17719 0.912798 0.948645 0.691006 0.586547 0.556303 0.422482 0.204649
internal_count=365 68 297 60 259 127 120 132 110 115 96 89 87 85 82 78 81 58 73 51
shrinkage=0.1


Tree=48
num_leaves=18
num_cat=0
split_feature=8 6 6 8 12 13 14 2 8 10 6 9 7 13 5 0 13
split_gain=1.10565 1.22874 1.43502 1.35252 1.5611 2.1832 0.680882 0.4087 0.208799 0.173514 0.0436957 0.00912253 0.000986843 0.000721288 0.000540926 1.97025e-06 1.47653e-06
threshold=13.935000000000002 0.23860000000000001 0.22855000000000003 23.865000000000006 0.08296000000000002 0.11935000000000001 0.11195000000000001 471.10000000000008 31.285 113.15000000000002 0.24305000000000002 16.275000000000002 1.1435000000000002 0.31085000000000007 0.061845000000000004 12.550000000000002 0.19100000000000003
decision_type=2 2 2 2 2 2 2 2 2 2 2 2 2 2 2 2 2
left_child=12 2 -2 9 -5 -6 -7 -8 -9 10 -3 -10 -1 15 -13 16 -12
right_child=1 3 -4 4 5 6 7 8 11 -11 13 14 -14 -15 -16 -17 -18
leaf_value=0.12039057046297214 -0.0075706026548499721 0.15472836538163767 -0.17964781443212724 -0.26844056576355751 0.21810795081422596 0.021928613225329002 0.031992761008147456 -0.033392458605901586 -0.11979651096751548 0.030215424507174252 0.10045009446112124 -0.10616356325519101 0.11222460160839304 0.10771808189680927 -0.10093206595899157 0.10117188472984062 0.10093500632246735
leaf_weight=0.28222955344244827 0.96524875727482118 0.22859807312488534 0.97330763877835125 0.25317927915602911 0.37212705705314908 1.2586893027182671 0.33232004381716285 0.50553688989020873 0.47428146842867114 0.31223883666098118 0.13510869164019823 0.29410423850640655 0.31113932316657156 0.2586674545891583 0.60261998698115349 0.11701171798631549 0.11732035176828504
leaf_count=17 35 1 12 6 23 37 6 15 5 7 38 9 26 6 93 14 15
internal_value=0 -0.0259087 -0.0939669 -0.000834673 -0.0279296 -0.0120709 -0.0367729 -0.0702232 -0.0883248 0.0940334 0.117293 -0.10858 0.116109 0.103668 -0.102648 0.100833 0.100675
internal_weight=0 7.20036 1.93856 5.2618 4.09286 3.83968 3.46755 2.20886 1.87654 1.16895 0.856706 1.37101 0.593369 0.628108 0.896724 0.369441 0.252429
internal_count=365 322 47 275 194 188 165 128 122 81 74 107 43 73 102 67 53
shrinkage=0.1


Tree=49
num_leaves=20
num_cat=0
split_feature=10 0 12 13 10 13 3 2 6 6 4 4 10 10 4 12 13 3 5
split_gain=0.982521 1.71545 1.90583 1.69447 1.11683 0.635936 1.01948 0.47182 0.901107 0.154942 0.00312994 0.000315286 0.000226837 1.7987e-06 1.57189e-06 1.01031e-06 3.78875e-07 4.50732e-08 4.00145e-09
threshold=85.095000000000013 12.775 0.15940000000000001 0.11935000000000001 101.80000000000003 0.32565000000000005 0.071925000000000003 649.60000000000014 0.25725000000000003 0.24975000000000003 0.34410000000000002 0.22645000000000001 119.60000000000001 139.85000000000005 0.076455000000000009 0.085570000000000021 0.18540000000000004 0.059745000000000006 0.09581000000000002
decision_type=2 2 2 2 2 2 2 2 2 2 2 2 2 2 2 2 2 2 2
left_child=10 2 -2 -3 -5 6 -6 -7 -9 -4 11 14 -10 -14 15 -1 17 -17 -15
right_child=1 3 9 4 5 7 -8 8 12 -11 -12 -13 13 18 -16 16 -18 -19 -20
leaf_value=0.10076707047943889 -0.28882868564793529 0.17614740176463717 -0.088638054994164231 0.10970190126272215 -0.082017217444592991 -0.11804860927789818 0.049900137847210174 0.10551041361309643 -0.1052551451722267 -0.0022885054064318007 0.11919222481166628 0.10659084059497781 -0.10090820748357204 -0.10047618424543736 0.10101160651979312 0.1003491002454045 0.10058795771174722 0.10023149462302683 -0.10045041014669712
leaf_weight=0.10510172112844873 0.47001172136515357 0.49473327712621529 0.35561671550385654 0.60703745391219843 0.95060556614771519 1.1588372555561366 1.5267212740145621 0.34362733364105214 0.14426771737635136 0.49993366212584078 0.13509190082550049 0.11558480188250542 0.13858790183439851 0.098117649089545012 0.082370352232828736 0.060483502922579646 0.060669971397146583 0.070659405319020152 0.15601266035810113
leaf_count=17 11 26 9 35 14 20 37 6 4 31 1 2 21 21 10 19 13 33 35
internal_value=0 -0.0247265 -0.127054 -0.000584802 -0.0176493 -0.0347648 -0.000719494 -0.0761197 -0.0209437 -0.0381804 0.105701 0.102018 -0.101864 -0.100618 0.100625 0.100518 0.100381 0.100286 -0.10046
internal_weight=0 6.94411 1.32556 5.61855 5.12381 4.51678 2.47733 2.03945 0.880613 0.85555 0.629962 0.49487 0.536986 0.392718 0.379285 0.296915 0.191813 0.131143 0.25413
internal_count=365 270 51 219 193 158 51 107 87 40 95 94 81 77 92 82 65 52 56
shrinkage=0.1


Tree=50
num_leaves=20
num_cat=0
split_feature=11 14 4 5 10 14 11 10 4 8 13 11 13 11 13 13 12 3 5
split_gain=1.28124 0.938761 0.635342 0.447137 0.00268538 0.00073366 0.000164127 0.000146284 7.93398e-05 4.74152e-05 1.17412e-05 6.90154e-06 2.65202e-06 1.88809e-06 3.41647e-07 1.3544e-07 2.1685e-07 2.28788e-08 9.29812e-09
threshold=874.85000000000014 0.17100000000000001 0.072750000000000009 0.045465000000000012 114.25000000000001 0.12860000000000002 583.05000000000007 120.80000000000003 0.061880000000000004 27.895000000000007 0.18790000000000004 1095.0000000000002 0.35920000000000007 514.65000000000009 0.19260000000000002 0.18540000000000004 0.088520000000000015 0.068530000000000021 0.094550000000000009
decision_type=2 2 2 2 2 2 2 2 2 2 2 2 2 2 2 2 2 2 2
left_child=1 3 -2 5 -4 6 13 -6 9 10 -8 -9 -13 15 -15 16 -1 -18 -14
right_child=2 -3 4 -5 7 -7 8 11 -10 -11 -12 12 18 14 -16 -17 17 -19 -20
leaf_value=0.10049137664344515 0.0072472615934279757 -0.083394963076256226 -0.11312920225741137 0.034005325454928535 -0.10413772091258151 0.10711604609633135 0.10095640978663407 -0.1015572460430485 0.10428670483407231 0.10341726964308712 0.10213973967399814 -0.1009068560116948 -0.1004487075208866 0.10067639063144879 0.10091253789411328 0.10049958585199173 0.10030102206475063 0.10020750784368404 -0.10040747979615597
leaf_weight=0.062522405991330965 1.0103523964062335 0.48475066199898709 0.27997811278328277 2.1303008996183053 0.17541348515078425 0.35991071304306377 0.19105042610317469 0.10518158716149628 0.2722563473507762 0.19948447297792882 0.14943379489704967 0.22039016988128424 0.087715386180207133 0.1325757906306535 0.11389905726537108 0.084036160027608275 0.054412593715824187 0.050391566939651966 0.14535283576697111
leaf_count=15 13 14 4 35 7 7 31 11 10 12 11 27 20 26 15 20 20 26 36
internal_value=0 0.0476587 -0.0488765 0.0643755 -0.104797 0.103117 0.102019 -0.101618 0.102895 0.102193 0.101476 -0.100827 -0.100658 0.100589 0.100786 0.100396 0.100344 0.100256 -0.100423
internal_weight=0 4.28502 2.02438 3.80027 1.01403 1.66997 1.31006 0.734053 0.812225 0.539969 0.340484 0.55864 0.453458 0.497838 0.246475 0.251363 0.167327 0.104804 0.233068
internal_count=360 242 118 228 105 193 186 101 64 54 42 94 83 122 41 81 61 46 56
shrinkage=0.1


Tree=51
num_leaves=17
num_cat=0
split_feature=10 13 8 14 3 14 1 4 9 7 11 13 11 14 3 14
split_gain=1.15962 0.835841 0.579191 0.800867 0.215138 0.0275987 0.0102363 0.00109734 0.000121718 2.54567e-05 5.24103e-06 2.018e-06 5.75425e-07 2.343e-07 6.56766e-08 3.4124e-08
threshold=120.80000000000003 0.23200000000000001 31.285 0.14235000000000003 0.046575000000000012 0.12550000000000003 98.500000000000014 0.056190000000000011 15.655000000000003 2.7805000000000004 633.20000000000016 0.34405000000000002 565.55000000000007 0.07419000000000002 0.061385000000000002 0.19850000000000004
decision_type=2 2 2 2 2 2 2 2 2 2 2 2 2 2 2 2
left_child=1 4 3 5 -1 -3 8 -2 10 -9 12 -11 13 14 -6 -13
right_child=7 2 -4 -5 6 -7 -8 9 -10 11 -12 15 -14 -15 -16 -17
leaf_value=0.021127815144950188 -0.11025148608252033 0.08363357499391666 -0.051263804185921052 -0.016948116484774244 0.10035342013530127 0.11607666096108001 0.11951036826556148 -0.10212276573289206 0.10334237935439763 -0.10085385667715208 0.10119709891921996 -0.10044601018934177 0.10067328508832496 0.1004860780154552 0.10020348694017139 -0.1003689529049189
leaf_weight=0.34983729175291944 0.16696445643901814 0.55177880660630829 1.212906881701201 1.3716620616614816 0.06295223149936624 0.49963544402271509 0.56759351491928101 0.14888218976557255 0.27439912862610072 0.1720417533069849 0.14175688021350652 0.10194627474993467 0.096741113695316017 0.11180821468587965 0.054516017087735236 0.13172418531030416
leaf_count=28 2 39 21 22 22 8 5 14 15 22 22 24 21 29 30 36
internal_value=0 0.0319888 0.00514797 0.0333857 0.0907937 0.0990506 0.109401 -0.103144 0.10167 -0.101004 0.100689 -0.100594 0.100469 0.100382 0.100284 -0.100403
internal_weight=0 5.29559 3.63598 2.42308 1.6596 1.05141 1.30977 0.721559 0.742174 0.554594 0.467774 0.405712 0.326018 0.229276 0.117468 0.23367
internal_count=360 262 90 69 172 47 144 98 139 96 124 82 102 81 52 60
shrinkage=0.1


Tree=52
num_leaves=19
num_cat=0
split_feature=11 5 3 4 10 14 10 11 4 7 11 13 11 13 12 13 3 5
split_gain=1.04335 0.812 0.601694 0.525128 0.00165298 0.000469231 0.000124332 0.000104461 5.6536e-05 2.2458e-05 3.77356e-06 1.45077e-06 1.14119e-06 1.0855e-07 7.3853e-08 1.52587e-07 2.23524e-08 5.08401e-09
threshold=874.85000000000014 0.045465000000000012 0.12970000000000001 0.072750000000000009 114.25000000000001 0.12860000000000002 120.80000000000003 583.05000000000007 0.061880000000000004 2.1010000000000004 1095.0000000000002 0.35920000000000007 514.65000000000009 0.18935000000000005 0.08296000000000002 0.18540000000000004 0.062235000000000006 0.094550000000000009
decision_type=2 2 2 2 2 2 2 2 2 2 2 2 2 2 2 2 2 2
left_child=1 5 -3 -2 -5 7 -6 12 9 -9 -8 -12 14 -14 -1 16 -16 -13
right_child=3 2 -4 4 6 -7 10 8 -10 -11 11 17 13 -15 15 -17 -18 -19
leaf_value=0.10044308394354987 0.0036079837725926053 -0.052120389199633702 0.049022710943370081 -0.11120820864864599 -0.10392762891073917 0.10589937497344847 -0.10127217137946426 0.10125627040121632 0.10374881531296916 0.10268492119283595 -0.10074130318081526 -0.10036700314745624 0.10059513291037508 0.1007402647706116 0.10026708287382542 0.10041302942143214 0.10016935634417685 -0.10033332128987045
